{"learner":{"attributes":{"best_iteration":"99","best_ntree_limit":"100","scikit_learn":"{\"n_estimators\": 100, \"objective\": \"reg:squarederror\", \"max_depth\": 4, \"max_leaves\": null, \"max_bin\": null, \"grow_policy\": null, \"learning_rate\": null, \"verbosity\": null, \"booster\": null, \"tree_method\": null, \"gamma\": 6.343531745956199, \"min_child_weight\": 0.0, \"max_delta_step\": null, \"subsample\": null, \"sampling_method\": null, \"colsample_bytree\": 0.7195004339549235, \"colsample_bylevel\": null, \"colsample_bynode\": null, \"reg_alpha\": 40.0, \"reg_lambda\": 0.4270877076568336, \"scale_pos_weight\": null, \"base_score\": null, \"missing\": NaN, \"num_parallel_tree\": null, \"random_state\": null, \"n_jobs\": null, \"monotone_constraints\": null, \"interaction_constraints\": null, \"importance_type\": null, \"gpu_id\": null, \"validate_parameters\": null, \"predictor\": null, \"enable_categorical\": false, \"feature_types\": null, \"max_cat_to_onehot\": null, \"max_cat_threshold\": null, \"eval_metric\": null, \"early_stopping_rounds\": null, \"callbacks\": null, \"_estimator_type\": \"regressor\"}"},"feature_names":["Species","Length1","Length2","Length3","Height","Width"],"feature_types":["int","float","float","float","float","float"],"gradient_booster":{"model":{"gbtree_model_param":{"num_parallel_tree":"1","num_trees":"100","size_leaf_vector":"0"},"tree_info":[0,0,0,0,0,0,0,0,0,0,0,0,0,0,0,0,0,0,0,0,0,0,0,0,0,0,0,0,0,0,0,0,0,0,0,0,0,0,0,0,0,0,0,0,0,0,0,0,0,0,0,0,0,0,0,0,0,0,0,0,0,0,0,0,0,0,0,0,0,0,0,0,0,0,0,0,0,0,0,0,0,0,0,0,0,0,0,0,0,0,0,0,0,0,0,0,0,0,0,0],"trees":[{"base_weights":[3.8468588E2,1.9032516E2,8.1541656E2,9.661849E1,3.4964597E2,6.5106256E2,1.0261709E3,2.1056684E1,1.2531202E2,2.7292902E2,4.0669446E2,4.5282114E2,6.921875E2,8.9807263E2,1.3884967E3,6.7516456E0,3.664179E1,8.8634094E1,1.4614923E2],"categories":[],"categories_nodes":[],"categories_segments":[],"categories_sizes":[],"default_left":[1,1,1,1,1,1,1,1,1,0,0,0,0,0,0,0,0,0,0],"id":0,"left_children":[1,3,5,7,9,11,13,15,17,-1,-1,-1,-1,-1,-1,-1,-1,-1,-1],"loss_changes":[1.056132E7,1.287887E6,1.01326E6,1.15359875E5,6.73285E4,1.1328E4,1.38406E5,1.8209497E3,1.597325E4,0E0,0E0,0E0,0E0,0E0,0E0,0E0,0E0,0E0,0E0],"parents":[2147483647,0,0,1,1,2,2,3,3,4,4,5,5,6,6,7,7,8,8],"right_children":[2,4,6,8,10,12,14,16,18,-1,-1,-1,-1,-1,-1,-1,-1,-1,-1],"split_conditions":[5.15405E0,2.76E1,4.155E1,1.56E1,3.255E1,3.685E1,5.215E1,3.2301002E0,2.3150002E1,8.187871E1,1.2200834E2,1.3584634E2,2.0765627E2,2.694218E2,4.1654904E2,2.0254939E0,1.0992537E1,2.6590229E1,4.3844772E1],"split_indices":[5,3,3,1,3,3,1,4,3,0,0,0,0,0,0,0,0,0,0],"split_type":[0,0,0,0,0,0,0,0,0,0,0,0,0,0,0,0,0,0,0],"sum_hessian":[1.27E2,8.8E1,3.9E1,5.6E1,3.2E1,2.3E1,1.6E1,1.6E1,4E1,1.5E1,1.7E1,5E0,1.8E1,1.3E1,3E0,1E1,6E0,1.6E1,2.4E1],"tree_param":{"num_deleted":"0","num_feature":"6","num_nodes":"19","size_leaf_vector":"0"}},{"base_weights":[2.745411E2,1.3529395E2,5.8285626E2,6.890257E1,2.4780757E2,4.7176508E2,7.5862244E2,3.1928192E1,1.0100471E2,2.0816931E2,3.1907724E2,3.2254102E2,4.9958926E2,6.472218E2,1.02385846E3,6.182899E0,4.657215E1],"categories":[],"categories_nodes":[],"categories_segments":[],"categories_sizes":[],"default_left":[1,1,1,1,1,1,1,1,0,0,0,0,0,0,0,0,0],"id":1,"left_children":[1,3,5,7,9,11,13,15,-1,-1,-1,-1,-1,-1,-1,-1,-1],"loss_changes":[5.408297E6,6.405839E5,5.67789E5,6.0281875E4,4.2148625E4,3.869E3,7.6425E4,8.1071855E3,0E0,0E0,0E0,0E0,0E0,0E0,0E0,0E0,0E0],"parents":[2147483647,0,0,1,1,2,2,3,3,4,4,5,5,6,6,7,7],"right_children":[2,4,6,8,10,12,14,16,-1,-1,-1,-1,-1,-1,-1,-1,-1],"split_conditions":[5.15405E0,2.76E1,4.235E1,2.06E1,4.7941E0,3.29E1,5.585E1,2.1676E0,3.0301413E1,6.2450794E1,9.5723175E1,9.676231E1,1.4987679E2,1.9416655E2,3.0715756E2,1.8548697E0,1.3971646E1],"split_indices":[5,3,3,2,5,2,2,5,0,0,0,0,0,0,0,0,0],"split_type":[0,0,0,0,0,0,0,0,0,0,0,0,0,0,0,0,0],"sum_hessian":[1.27E2,8.8E1,3.9E1,5.6E1,3.2E1,2.5E1,1.4E1,2.7E1,2.9E1,2.2E1,1E1,5E0,2E1,1.1E1,3E0,1.1E1,1.6E1],"tree_param":{"num_deleted":"0","num_feature":"6","num_nodes":"17","size_leaf_vector":"0"}},{"base_weights":[1.9612378E2,9.623532E1,4.1701465E2,4.5149742E1,1.7098752E2,3.7923132E2,7.5497925E2,1.0313943E1,5.8855534E1,1.2567654E2,2.0770584E2,2.5743445E2,4.1964523E2,-0E0,1.3839935E1,3.6957745E1,6.585939E1,1.021633E2,2.2280882E2],"categories":[],"categories_nodes":[],"categories_segments":[],"categories_sizes":[],"default_left":[1,1,1,1,1,1,0,1,1,0,1,0,0,0,0,0,0,0,0],"id":2,"left_children":[1,3,5,7,9,11,-1,13,15,-1,17,-1,-1,-1,-1,-1,-1,-1,-1],"loss_changes":[2.7739395E6,3.2573925E5,3.358125E5,2.2482852E4,3.4457625E4,1.060825E5,0E0,2.4977307E2,5.8791406E2,0E0,6.65225E3,0E0,0E0,0E0,0E0,0E0,0E0,0E0,0E0],"parents":[2147483647,0,0,1,1,2,2,3,3,4,4,5,5,7,7,8,8,10,10],"right_children":[2,4,6,8,10,12,-1,14,16,-1,18,-1,-1,-1,-1,-1,-1,-1,-1],"split_conditions":[5.15405E0,2.205E1,5.215E1,1.56E1,2.885E1,3.475E1,2.2649379E2,1.145E1,2.06E1,3.770296E1,4.24025E0,7.723034E1,1.2589358E2,-0E0,4.151981E0,1.1087324E1,1.9757818E1,3.064899E1,6.684265E1],"split_indices":[5,1,1,1,2,2,0,1,2,0,5,0,0,0,0,0,0,0,0],"split_type":[0,0,0,0,0,0,0,0,0,0,0,0,0,0,0,0,0,0,0],"sum_hessian":[1.27E2,8.8E1,3.9E1,5.3E1,3.5E1,3.6E1,3E0,1.6E1,3.7E1,1.7E1,1.8E1,1E1,2.6E1,6E0,1E1,1.1E1,2.6E1,3E0,1.5E1],"tree_param":{"num_deleted":"0","num_feature":"6","num_nodes":"19","size_leaf_vector":"0"}},{"base_weights":[1.4010948E2,8.2503006E1,3.3808282E2,4.1709385E1,1.5784402E2,2.787471E2,4.8443903E2,2.4830355E1,6.980996E1,1.13802055E2,1.8369128E2,1.9543584E2,3.106115E2,3.7429354E0,3.2732525E1],"categories":[],"categories_nodes":[],"categories_segments":[],"categories_sizes":[],"default_left":[1,1,1,1,1,1,0,1,0,0,0,0,0,0,0],"id":3,"left_children":[1,3,5,7,9,11,-1,13,-1,-1,-1,-1,-1,-1,-1],"loss_changes":[1.424512E6,2.947887E5,1.586655E5,2.650682E4,1.8362688E4,1.0713625E4,0E0,5.5585527E3,0E0,0E0,0E0,0E0,0E0,0E0,0E0],"parents":[2147483647,0,0,1,1,2,2,3,3,4,4,5,5,7,7],"right_children":[2,4,6,8,10,12,-1,14,-1,-1,-1,-1,-1,-1,-1],"split_conditions":[6.0355997E0,3.005E1,3.85E1,2.405E1,4.7941E0,1.1135799E1,1.4533171E2,1.635E1,2.094299E1,3.4140617E1,5.5107388E1,5.8630753E1,9.318346E1,1.1228807E0,9.819757E0],"split_indices":[5,3,1,3,5,4,0,3,0,0,0,0,0,0,0],"split_type":[0,0,0,0,0,0,0,0,0,0,0,0,0,0,0],"sum_hessian":[1.27E2,9.9E1,2.8E1,6.5E1,3.4E1,2.1E1,7E0,4.2E1,2.3E1,1.4E1,2E1,7E0,1.4E1,1.3E1,2.9E1],"tree_param":{"num_deleted":"0","num_feature":"6","num_nodes":"15","size_leaf_vector":"0"}},{"base_weights":[1.0013775E2,6.0877724E1,2.5503252E2,3.0944809E1,1.1598496E2,2.2173323E2,4.2949112E2,1.2889494E1,4.692991E1,6.600884E1,1.2589246E2,1.524967E2,2.4633452E2,2.0006601E1,3.5696168E0,3.1587324E1,5.88271E1,1.3111076E2,3.0440002E1],"categories":[],"categories_nodes":[],"categories_segments":[],"categories_sizes":[],"default_left":[1,1,1,1,1,1,0,1,1,0,1,0,0,0,0,0,0,0,0],"id":4,"left_children":[1,3,5,7,9,11,-1,13,15,-1,17,-1,-1,-1,-1,-1,-1,-1,-1],"loss_changes":[7.556389E5,1.6154556E5,8.0993125E4,1.6809418E4,6.3160938E3,6.20325E3,0E0,1.2436875E3,1.8739062E3,0E0,5.993E3,0E0,0E0,0E0,0E0,0E0,0E0,0E0,0E0],"parents":[2147483647,0,0,1,1,2,2,3,3,4,4,5,5,7,7,8,8,10,10],"right_children":[2,4,6,8,10,12,-1,14,16,-1,18,-1,-1,-1,-1,-1,-1,-1,-1],"split_conditions":[6.1373E0,3.07E1,5.215E1,3.4089499E0,4.516E0,3.95E1,1.2884734E2,3E0,2.565E1,1.9802654E1,3.5E0,4.5749012E1,7.390036E1,6.001981E0,1.0708851E0,9.476197E0,1.764813E1,3.933323E1,9.132001E0],"split_indices":[5,3,1,5,5,3,0,0,3,0,0,0,0,0,0,0,0,0,0],"split_type":[0,0,0,0,0,0,0,0,0,0,0,0,0,0,0,0,0,0,0],"sum_hessian":[1.27E2,1.02E2,2.5E1,6.7E1,3.5E1,2.2E1,3E0,3.3E1,3.4E1,7E0,2.8E1,7E0,1.5E1,1.6E1,1.7E1,1.7E1,1.7E1,2.6E1,2E0],"tree_param":{"num_deleted":"0","num_feature":"6","num_nodes":"19","size_leaf_vector":"0"}},{"base_weights":[7.212026E1,4.374459E1,1.8364052E2,1.9423195E1,7.8391235E1,1.5802684E2,3.1670093E2,9.472003E0,2.9425766E1,5.694144E1,1.04240425E2,9.890669E1,1.8510918E2,1.1434783E1,-0E0,-0E0,3.155432E1,5.871374E1,-0E0,-0E0,1.109358E2],"categories":[],"categories_nodes":[],"categories_segments":[],"categories_sizes":[],"default_left":[1,1,1,1,1,1,0,1,1,1,1,0,0,0,0,0,0,0,0,0,0],"id":5,"left_children":[1,3,5,7,9,11,-1,13,15,17,19,-1,-1,-1,-1,-1,-1,-1,-1,-1,-1],"loss_changes":[3.9071194E5,8.174781E4,4.6296062E4,4.4393496E3,1.3987344E4,1.6728312E4,0E0,9.794321E2,1.6984668E3,1.5596562E3,1.2800203E4,0E0,0E0,0E0,0E0,0E0,0E0,0E0,0E0,0E0,0E0],"parents":[2147483647,0,0,1,1,2,2,3,3,4,4,5,5,7,7,8,8,9,9,10,10],"right_children":[2,4,6,8,10,12,-1,14,16,18,20,-1,-1,-1,-1,-1,-1,-1,-1,-1,-1],"split_conditions":[6.1373E0,4.2191E0,5.585E1,3.4089499E0,3.24E1,1.1135799E1,9.5010284E1,3.3383E0,5.66625E0,5.31675E0,6.4482E0,2.9672009E1,5.5532757E1,3.430435E0,-0E0,-0E0,9.466296E0,1.7614122E1,-0E0,-0E0,3.3280743E1],"split_indices":[5,5,2,5,2,4,0,5,4,5,4,0,0,0,0,0,0,0,0,0,0],"split_type":[0,0,0,0,0,0,0,0,0,0,0,0,0,0,0,0,0,0,0,0,0],"sum_hessian":[1.27E2,1.02E2,2.5E1,6.1E1,4.1E1,2.2E1,3E0,3.3E1,2.8E1,2.4E1,1.7E1,8E0,1.4E1,3E1,3E0,2E0,2.6E1,2.3E1,1E0,1E0,1.6E1],"tree_param":{"num_deleted":"0","num_feature":"6","num_nodes":"21","size_leaf_vector":"0"}},{"base_weights":[5.1822224E1,3.1206951E1,1.3656606E2,1.5812617E1,6.2045715E1,1.1646847E2,2.3353096E2,-0E0,1.9891438E1,4.0417023E1,7.468477E1,1.2972834E1,2.6807373E1,4.576979E1,-0E0],"categories":[],"categories_nodes":[],"categories_segments":[],"categories_sizes":[],"default_left":[1,1,1,1,1,0,0,0,1,1,0,0,0,0,0],"id":6,"left_children":[1,3,5,7,9,-1,-1,-1,11,13,-1,-1,-1,-1,-1],"loss_changes":[2.1408628E5,4.5567867E4,2.198625E4,4.321287E3,3.2445781E3,0E0,0E0,0E0,9.12375E2,2.4660176E3,0E0,0E0,0E0,0E0,0E0],"parents":[2147483647,0,0,1,1,2,2,3,3,4,4,8,8,9,9],"right_children":[2,4,6,8,10,-1,-1,-1,12,14,-1,-1,-1,-1,-1],"split_conditions":[4.115E1,4.57135E0,5.215E1,1.73E1,5.15405E0,3.494054E1,7.005929E1,-0E0,2.485E1,2.91E1,2.2405432E1,3.8918502E0,8.0422125E0,1.3730938E1,-0E0],"split_indices":[3,5,1,3,5,0,0,0,3,1,0,0,0,0,0],"split_type":[0,0,0,0,0,0,0,0,0,0,0,0,0,0,0],"sum_hessian":[1.27E2,1.03E2,2.4E1,7E1,3.3E1,2.1E1,3E0,1.5E1,5.5E1,1.4E1,1.9E1,3.1E1,2.4E1,1.2E1,2E0],"tree_param":{"num_deleted":"0","num_feature":"6","num_nodes":"15","size_leaf_vector":"0"}},{"base_weights":[3.7319305E1,2.2318016E1,9.854646E1,7.73063E0,4.4898712E1,8.2934746E1,1.722025E2,-0E0,9.778108E0,6.1275566E1,1.084951E2,1.0199429E1,-0E0],"categories":[],"categories_nodes":[],"categories_segments":[],"categories_sizes":[],"default_left":[1,1,1,1,0,1,0,0,1,0,0,0,0],"id":7,"left_children":[1,3,5,7,-1,9,-1,-1,11,-1,-1,-1,-1],"loss_changes":[1.1126614E5,3.181479E4,1.1783672E4,9.7107104E2,0E0,2.2322344E3,0E0,0E0,2.1638623E2,0E0,0E0,0E0,0E0],"parents":[2147483647,0,0,1,1,2,2,3,3,5,5,8,8],"right_children":[2,4,6,8,-1,10,-1,-1,12,-1,-1,-1,-1],"split_conditions":[3.515E1,8.673E0,5.215E1,4.8372E0,1.3469614E1,1.19307E1,5.166075E1,-0E0,3.22E1,1.8382671E1,3.254853E1,3.0598288E0,-0E0],"split_indices":[1,4,1,4,0,4,0,0,1,0,0,0,0],"split_type":[0,0,0,0,0,0,0,0,0,0,0,0,0],"sum_hessian":[1.27E2,1.03E2,2.4E1,6.4E1,3.9E1,2.1E1,3E0,1.4E1,5E1,1.3E1,8E0,4.8E1,2E0],"tree_param":{"num_deleted":"0","num_feature":"6","num_nodes":"13","size_leaf_vector":"0"}},{"base_weights":[2.6909184E1,1.4903095E1,7.32478E1,3.4911602E0,2.5413464E1,5.8037888E1,1.1736189E2,-0E0,6.630261E0,1.933295E1,4.061277E1,3.4305332E1,9.221977E1,1.8001891E0,-2.1015894E1,-0E0,1.1902111E1,2.1566463E1,-2.0303955E0,5.4720512E1,1.073954E1,3.5899723E1,-0E0],"categories":[],"categories_nodes":[],"categories_segments":[],"categories_sizes":[],"default_left":[1,1,1,1,1,1,0,1,1,1,1,1,0,0,0,0,0,0,0,0,0,0,0],"id":8,"left_children":[1,3,5,7,9,11,-1,13,15,17,19,21,-1,-1,-1,-1,-1,-1,-1,-1,-1,-1,-1],"loss_changes":[6.690125E4,1.1091402E4,7.1357656E3,4.4701996E2,2.019707E3,1.0158773E4,0E0,7.159404E2,6.866007E2,2.681421E3,2.3679258E3,2.1416113E2,0E0,0E0,0E0,0E0,0E0,0E0,0E0,0E0,0E0,0E0,0E0],"parents":[2147483647,0,0,1,1,2,2,3,3,4,4,5,5,7,7,8,8,9,9,10,10,11,11],"right_children":[2,4,6,8,10,12,-1,14,16,18,20,22,-1,-1,-1,-1,-1,-1,-1,-1,-1,-1,-1],"split_conditions":[6.1373E0,6.9376497E0,7.4069E0,3.37365E0,1.4092199E1,3.725E1,3.520857E1,3.3383E0,6.13885E0,1.375765E1,5.4699497E0,3.705E1,2.7665934E1,5.4005677E-1,-6.3047686E0,-0E0,3.5706334E0,6.469939E0,-6.091187E-1,1.6416155E1,3.221862E0,1.07699175E1,-0E0],"split_indices":[5,4,5,5,4,1,0,5,4,4,5,1,0,0,0,0,0,0,0,0,0,0,0],"split_type":[0,0,0,0,0,0,0,0,0,0,0,0,0,0,0,0,0,0,0,0,0,0,0],"sum_hessian":[1.27E2,1.02E2,2.5E1,5.1E1,5.1E1,2E1,5E0,2.7E1,2.4E1,3.9E1,1.2E1,1.3E1,7E0,2.6E1,1E0,1.2E1,1.2E1,3.7E1,2E0,7E0,5E0,1.2E1,1E0],"tree_param":{"num_deleted":"0","num_feature":"6","num_nodes":"23","size_leaf_vector":"0"}},{"base_weights":[1.9699419E1,8.789327E0,4.7900608E1,5.3044434E0,2.8102787E1,4.0234337E1,1.0056071E2,6.240618E0,-2.101439E1,3.770943E1,-0E0,-0E0,4.3118977E1,2.128603E0,1.2323398E1,4.215066E1,-0E0,-0E0,1.1271909E1,4.54382E1,-0E0],"categories":[],"categories_nodes":[],"categories_segments":[],"categories_sizes":[],"default_left":[1,1,1,1,1,1,0,1,0,1,1,0,1,0,0,0,0,0,0,0,0],"id":9,"left_children":[1,3,5,7,9,11,-1,13,-1,15,17,-1,19,-1,-1,-1,-1,-1,-1,-1,-1],"loss_changes":[3.6759055E4,4.88817E3,6.5386406E3,1.4713435E3,2.1688281E3,3.837961E3,0E0,1.4223972E3,0E0,1.2122178E3,3.0837585E2,0E0,1.9145977E3,0E0,0E0,0E0,0E0,0E0,0E0,0E0,0E0],"parents":[2147483647,0,0,1,1,2,2,3,3,4,4,5,5,7,7,9,9,10,10,12,12],"right_children":[2,4,6,8,10,12,-1,14,-1,16,18,-1,20,-1,-1,-1,-1,-1,-1,-1,-1],"split_conditions":[3.225E1,1.39589E1,5.215E1,1.375765E1,5.4699497E0,6.3422003E0,3.0168213E1,7.3398E0,-6.3043175E0,3.145E1,1.5914301E1,-0E0,4.4E1,6.385809E-1,3.6970193E0,1.2645199E1,-0E0,-0E0,3.3815727E0,1.3631461E1,-0E0],"split_indices":[1,4,1,4,5,4,0,4,0,1,4,0,1,0,0,0,0,0,0,0,0],"split_type":[0,0,0,0,0,0,0,0,0,0,0,0,0,0,0,0,0,0,0,0,0],"sum_hessian":[1.27E2,9.3E1,3.4E1,8.1E1,1.2E1,3.1E1,3E0,8E1,1E0,8E0,4E0,2E0,2.9E1,5.2E1,2.8E1,7E0,1E0,2E0,2E0,2.7E1,2E0],"tree_param":{"num_deleted":"0","num_feature":"6","num_nodes":"21","size_leaf_vector":"0"}},{"base_weights":[1.4329663E1,9.37392E0,5.00954E1,7.3260803E0,6.2519203E1,2.8692024E0,5.88862E1,4.7005763E0,2.0770958E1,7.1400256E0,-0E0,6.2718723E1,-0E0,5.4247923E0,-1.6596779E1,2.413001E1,-0E0],"categories":[],"categories_nodes":[],"categories_segments":[],"categories_sizes":[],"default_left":[1,1,1,1,0,1,1,1,1,0,0,0,0,0,0,0,0],"id":10,"left_children":[1,3,5,7,-1,9,11,13,15,-1,-1,-1,-1,-1,-1,-1,-1],"loss_changes":[2.0006588E4,9.355188E3,3.4471133E3,2.8374702E3,0E0,9.551994E1,1.392E3,1.0634297E3,5.800132E2,0E0,0E0,0E0,0E0,0E0,0E0,0E0,0E0],"parents":[2147483647,0,0,1,1,2,2,3,3,5,5,6,6,7,7,8,8],"right_children":[2,4,6,8,-1,10,12,14,16,-1,-1,-1,-1,-1,-1,-1,-1],"split_conditions":[4.05E1,7.4069E0,7.733E0,1.39589E1,1.8755762E1,4.65E1,7.5379E0,1.375765E1,6.1103E0,2.1420078E0,-0E0,1.8815619E1,-0E0,1.6274377E0,-4.979034E0,7.2390037E0,-0E0],"split_indices":[2,5,4,4,0,2,5,4,5,0,0,0,0,0,0,0,0],"split_type":[0,0,0,0,0,0,0,0,0,0,0,0,0,0,0,0,0],"sum_hessian":[1.27E2,1.13E2,1.4E1,1.1E2,3E0,3E0,1.1E1,9.5E1,1.5E1,2E0,1E0,1E1,1E0,9.4E1,1E0,1.2E1,3E0],"tree_param":{"num_deleted":"0","num_feature":"6","num_nodes":"17","size_leaf_vector":"0"}},{"base_weights":[1.05347395E1,2.7936785E0,2.406961E1,3.9792936E0,-2.0993814E1,2.0075367E1,5.768125E1,1.7788795E-1,1.1680018E1,-0E0,2.164417E1,-6.756598E-2,1.609119E0,2.272786E1,-0E0],"categories":[],"categories_nodes":[],"categories_segments":[],"categories_sizes":[],"default_left":[1,1,1,1,0,1,0,1,0,0,1,0,0,0,0],"id":11,"left_children":[1,3,5,7,-1,9,-1,11,-1,-1,13,-1,-1,-1,-1],"loss_changes":[1.2247831E4,1.7079766E3,2.3596523E3,1.9084585E3,0E0,1.3059824E3,0E0,8.223407E1,0E0,0E0,8.146738E2,0E0,0E0,0E0,0E0],"parents":[2147483647,0,0,1,1,2,2,3,3,5,5,7,7,10,10],"right_children":[2,4,6,8,-1,10,-1,12,-1,-1,14,-1,-1,-1,-1],"split_conditions":[2.995E1,2.945E1,5.215E1,8.3576E0,-6.298145E0,6.3422003E0,1.7304377E1,2.065E1,3.5040057E0,-0E0,4.4E1,-2.0269794E-2,4.8273572E-1,6.818358E0,-0E0],"split_indices":[1,1,1,4,0,4,0,2,0,0,1,0,0,0,0],"split_type":[0,0,0,0,0,0,0,0,0,0,0,0,0,0,0],"sum_hessian":[1.27E2,8.3E1,4.4E1,8.1E1,2E0,4.1E1,3E0,5.8E1,2.3E1,3E0,3.8E1,2.6E1,3.2E1,3.6E1,2E0],"tree_param":{"num_deleted":"0","num_feature":"6","num_nodes":"15","size_leaf_vector":"0"}},{"base_weights":[7.5503645E0,4.083826E0,2.703584E1,-0E0,7.6318145E0,-0E0,3.044576E1,-4.4493873E-2,9.5596135E-1,7.8543324E0,-0E0,8.311196E0,3.756601E1,-0E0,-1.817163E1,-0E0,2.2539904E0,-0E0,8.003723E0,-0E0,1.5015707E1],"categories":[],"categories_nodes":[],"categories_segments":[],"categories_sizes":[],"default_left":[1,1,1,1,1,0,1,1,1,1,0,1,0,0,0,0,0,0,0,0,0],"id":12,"left_children":[1,3,5,7,9,-1,11,13,15,17,-1,19,-1,-1,-1,-1,-1,-1,-1,-1,-1],"loss_changes":[7.3153955E3,1.3866656E3,6.3500977E2,2.78565E1,1.293081E2,0E0,3.053291E2,4.711857E2,5.56512E1,6.48811E1,0E0,3.9782904E2,0E0,0E0,0E0,0E0,0E0,0E0,0E0,0E0,0E0],"parents":[2147483647,0,0,1,1,2,2,3,3,4,4,6,6,7,7,8,8,9,9,11,11],"right_children":[2,4,6,8,10,-1,12,14,16,18,-1,20,-1,-1,-1,-1,-1,-1,-1,-1,-1],"split_conditions":[3.695E1,7.2864E0,7.733E0,2.065E1,3.675E1,-0E0,3.85E1,1.88E1,6.14115E0,1.69E1,-0E0,1.20554E1,1.1269803E1,-0E0,-5.4514894E0,-0E0,6.761972E-1,-0E0,2.401117E0,-0E0,4.504712E0],"split_indices":[1,4,4,2,1,0,1,1,4,1,0,4,0,0,0,0,0,0,0,0,0],"split_type":[0,0,0,0,0,0,0,0,0,0,0,0,0,0,0,0,0,0,0,0,0],"sum_hessian":[1.27E2,1.1E2,1.7E1,5.5E1,5.5E1,3E0,1.4E1,2.5E1,3E1,5.4E1,1E0,5E0,9E0,2.4E1,1E0,1.4E1,1.6E1,1E0,5.3E1,2E0,3E0],"tree_param":{"num_deleted":"0","num_feature":"6","num_nodes":"21","size_leaf_vector":"0"}},{"base_weights":[5.6075335E0,1.5656704E0,1.5344766E1,2.1703026E0,-1.0387731E0,9.080684E0,2.290338E1,1.1069787E0,2.317205E1,-4.9640713E0,-0E0,9.575591E0,-0E0,1.9018468E0,-3.5357645E0,-9.721154E0,-0E0],"categories":[],"categories_nodes":[],"categories_segments":[],"categories_sizes":[],"default_left":[1,1,1,1,1,1,0,1,0,1,0,0,0,0,0,0,0],"id":13,"left_children":[1,3,5,7,9,11,-1,13,-1,15,-1,-1,-1,-1,-1,-1,-1],"loss_changes":[4.328414E3,1.933465E2,2.618579E2,9.926075E2,1.0323622E2,1.1538013E2,0E0,2.5646304E2,0E0,2.147703E2,0E0,0E0,0E0,0E0,0E0,0E0,0E0],"parents":[2147483647,0,0,1,1,2,2,3,3,4,4,5,5,7,7,9,9],"right_children":[2,4,6,8,10,12,-1,14,-1,16,-1,-1,-1,-1,-1,-1,-1],"split_conditions":[3.225E1,3.935E1,3.85E1,3.815E1,4.075E1,3.77E1,6.871014E0,2.945E1,6.9516153E0,3.19E1,-0E0,2.8726773E0,-0E0,5.705541E-1,-1.0607294E0,-2.9163463E0,-0E0],"split_indices":[1,3,1,3,3,1,0,1,0,1,0,0,0,0,0,0,0],"split_type":[0,0,0,0,0,0,0,0,0,0,0,0,0,0,0,0,0],"sum_hessian":[1.27E2,9.3E1,3.4E1,8.8E1,5E0,2.2E1,1.2E1,8.6E1,2E0,4E0,1E0,2.1E1,1E0,8.1E1,5E0,3E0,1E0],"tree_param":{"num_deleted":"0","num_feature":"6","num_nodes":"17","size_leaf_vector":"0"}},{"base_weights":[4.125556E0,2.3146708E0,3.7281353E1,8.8120073E-1,1.0944382E1,4.706575E1,-0E0,-0E0,7.075505E0,1.3217836E1,-0E0,-2.67251E-1,9.843648E0,2.0318745E1,-0E0,-0E0,1.622558E1],"categories":[],"categories_nodes":[],"categories_segments":[],"categories_sizes":[],"default_left":[1,1,1,1,1,0,0,1,1,1,0,0,0,0,0,0,0],"id":14,"left_children":[1,3,5,7,9,-1,-1,11,13,15,-1,-1,-1,-1,-1,-1,-1],"loss_changes":[6.0301963E3,1.0373337E3,2.263712E3,5.3716266E2,5.628617E2,0E0,0E0,3.388202E2,1.6184462E3,3.1071265E2,0E0,0E0,0E0,0E0,0E0,0E0,0E0],"parents":[2147483647,0,0,1,1,2,2,3,3,4,4,7,7,8,8,9,9],"right_children":[2,4,6,8,10,-1,-1,12,14,16,-1,-1,-1,-1,-1,-1,-1],"split_conditions":[7.4069E0,4.355E1,1.24348E1,1.4221149E1,7.0728E0,1.4119725E1,-0E0,5.5E0,3.935E1,7.733E0,-0E0,-8.017531E-2,2.9530945E0,6.0956235E0,-0E0,-0E0,4.8676744E0],"split_indices":[5,3,4,4,5,0,0,0,3,4,0,0,0,0,0,0,0],"split_type":[0,0,0,0,0,0,0,0,0,0,0,0,0,0,0,0,0],"sum_hessian":[1.27E2,1.22E2,5E0,1.09E2,1.3E1,4E0,1E0,9.7E1,1.2E1,1.2E1,1E0,9.4E1,3E0,5E0,7E0,3E0,9E0],"tree_param":{"num_deleted":"0","num_feature":"6","num_nodes":"17","size_leaf_vector":"0"}},{"base_weights":[3.0889704E0,1.6970782E0,2.687448E1,6.173974E-1,8.014021E0,3.430815E1,-0E0,-0E0,4.7639503E0,1.0229989E1,-0E0,9.3970215E-1,-2.6423953E0,1.2746504E1,-0E0,1.48255005E1,-0E0],"categories":[],"categories_nodes":[],"categories_segments":[],"categories_sizes":[],"default_left":[1,1,1,1,1,0,0,1,1,1,0,0,0,0,0,0,0],"id":15,"left_children":[1,3,5,7,9,-1,-1,11,13,15,-1,-1,-1,-1,-1,-1,-1],"loss_changes":[3.05637E3,4.876173E2,1.2912527E3,2.3994293E2,3.9775146E2,0E0,0E0,2.30179E2,5.9972156E2,4.3656482E2,0E0,0E0,0E0,0E0,0E0,0E0,0E0],"parents":[2147483647,0,0,1,1,2,2,3,3,4,4,7,7,8,8,9,9],"right_children":[2,4,6,8,10,-1,-1,12,14,16,-1,-1,-1,-1,-1,-1,-1],"split_conditions":[7.4069E0,3.725E1,1.24348E1,1.4317101E1,7.0728E0,1.0292446E1,-0E0,4.73385E0,5.4699497E0,4.4E1,-0E0,2.8191066E-1,-7.927186E-1,3.8239512E0,-0E0,4.4476504E0,-0E0],"split_indices":[5,1,4,4,5,0,0,5,5,1,0,0,0,0,0,0,0],"split_type":[0,0,0,0,0,0,0,0,0,0,0,0,0,0,0,0,0],"sum_hessian":[1.27E2,1.22E2,5E0,1.1E2,1.2E1,4E0,1E0,9.8E1,1.2E1,1.1E1,1E0,7.5E1,2.3E1,5E0,7E0,7E0,4E0],"tree_param":{"num_deleted":"0","num_feature":"6","num_nodes":"17","size_leaf_vector":"0"}},{"base_weights":[2.348673E0,3.3242318E-1,1.2771844E1,-6.6159636E-1,1.2275481E0,1.3333155E1,-0E0,-0E0,-1.4892786E1,3.1174812E0,-6.696186E-1,-5.3986007E-1,9.5817703E-1,-0E0,4.8006644E0,-3.1944883E0,2.354508E0],"categories":[],"categories_nodes":[],"categories_segments":[],"categories_sizes":[],"default_left":[1,1,1,1,1,0,0,1,0,1,1,0,0,0,0,0,0],"id":16,"left_children":[1,3,5,7,9,-1,-1,11,-1,13,15,-1,-1,-1,-1,-1,-1],"loss_changes":[2.1519878E3,1.2123983E2,7.758618E1,3.0276508E2,3.8359335E2,0E0,0E0,1.615325E1,0E0,3.9552008E2,2.6150278E2,0E0,0E0,0E0,0E0,0E0,0E0],"parents":[2147483647,0,0,1,1,2,2,3,3,4,4,7,7,9,9,10,10],"right_children":[2,4,6,8,10,-1,-1,12,-1,14,16,-1,-1,-1,-1,-1,-1],"split_conditions":[6.4747496E0,3.37365E0,1.8694801E1,3.3383E0,4.883E0,3.9999466E0,-0E0,2.86305E0,-4.467836E0,6.13885E0,1.575815E1,-1.6195802E-1,2.8745311E-1,-0E0,1.4401994E0,-9.5834655E-1,7.063524E-1],"split_indices":[5,5,4,5,5,0,0,5,0,4,4,0,0,0,0,0,0],"split_type":[0,0,0,0,0,0,0,0,0,0,0,0,0,0,0,0,0],"sum_hessian":[1.27E2,1.1E2,1.7E1,3.1E1,7.9E1,1.6E1,1E0,3E1,1E0,5E1,2.9E1,1.9E1,1.1E1,1.2E1,3.8E1,2.3E1,6E0],"tree_param":{"num_deleted":"0","num_feature":"6","num_nodes":"17","size_leaf_vector":"0"}},{"base_weights":[1.5910695E0,-0E0,7.173578E0,5.3301835E-1,-7.685983E0,9.079336E0,-0E0,-0E0,1.150428E1,-1.7906134E1,3.860139E-2,-0E0,1.0004345E1,-2.916602E-1,4.450624E0,1.0643178E1,-0E0],"categories":[],"categories_nodes":[],"categories_segments":[],"categories_sizes":[],"default_left":[1,1,1,1,1,1,0,1,0,0,0,0,1,0,0,0,0],"id":17,"left_children":[1,3,5,7,9,11,-1,13,-1,-1,-1,-1,15,-1,-1,-1,-1],"loss_changes":[1.1917424E3,4.6472552E2,3.3443823E2,4.2759457E2,1.3013384E3,2.9580872E2,0E0,1.5404282E2,0E0,0E0,0E0,0E0,5.6075684E1,0E0,0E0,0E0,0E0],"parents":[2147483647,0,0,1,1,2,2,3,3,4,4,5,5,7,7,12,12],"right_children":[2,4,6,8,10,12,-1,14,-1,-1,-1,-1,16,-1,-1,-1,-1],"split_conditions":[6.0105E0,5.2792997E0,1.41344E1,1.4317101E1,1.575815E1,9.2631E0,-0E0,3.375E1,3.4512842E0,-5.3718405E0,1.1580418E-2,-0E0,7.5446E0,-8.749806E-2,1.3351872E0,3.1929536E0,-0E0],"split_indices":[5,5,4,4,4,4,0,1,0,0,0,0,5,0,0,0,0],"split_type":[0,0,0,0,0,0,0,0,0,0,0,0,0,0,0,0,0],"sum_hessian":[1.27E2,9.8E1,2.9E1,9.1E1,7E0,2.2E1,7E0,8.8E1,3E0,5E0,2E0,1E0,2.1E1,8.1E1,7E0,1.9E1,2E0],"tree_param":{"num_deleted":"0","num_feature":"6","num_nodes":"17","size_leaf_vector":"0"}},{"base_weights":[1.2266017E0,3.3653075E-1,1.38383255E1,-0E0,4.8083587E0,1.9230877E1,-0E0,2.89611E-1,-4.649285E0,1.9232433E1,-0E0,-0E0,3.2473376E0,-7.7825933E0,-0E0],"categories":[],"categories_nodes":[],"categories_segments":[],"categories_sizes":[],"default_left":[1,1,1,1,1,0,0,1,1,0,0,0,0,0,0],"id":18,"left_children":[1,3,5,7,9,-1,-1,11,13,-1,-1,-1,-1,-1,-1],"loss_changes":[8.614278E2,2.272123E2,5.979718E2,1.9091743E2,6.5666943E2,0E0,0E0,1.2228737E2,2.0712207E2,0E0,0E0,0E0,0E0,0E0,0E0],"parents":[2147483647,0,0,1,1,2,2,3,3,4,4,7,7,8,8],"right_children":[2,4,6,8,10,-1,-1,12,14,-1,-1,-1,-1,-1,-1],"split_conditions":[7.4069E0,4.15E1,1.24348E1,3.875E1,4.275E1,5.7692633E0,-0E0,1.4221149E1,1.8129452E1,5.76973E0,-0E0,-0E0,9.742013E-1,-2.334778E0,-0E0],"split_indices":[5,2,4,2,2,0,0,4,4,0,0,0,0,0,0],"split_type":[0,0,0,0,0,0,0,0,0,0,0,0,0,0,0],"sum_hessian":[1.27E2,1.22E2,5E0,1.12E2,1E1,4E0,1E0,1.04E2,8E0,2E0,8E0,9.2E1,1.2E1,6E0,2E0],"tree_param":{"num_deleted":"0","num_feature":"6","num_nodes":"15","size_leaf_vector":"0"}},{"base_weights":[9.731372E-1,-0E0,4.3960075E0,2.2384116E-1,-5.9845943E0,9.5700586E-1,1.0415578E1,-0E0,7.540054E0,-1.2418565E1,-0E0,2.6581218E0,-0E0,-0E0,1.431389E1,2.5591442E-1,-5.5039263E0,1.0889024E1,-0E0,-0E0,7.8082986E0],"categories":[],"categories_nodes":[],"categories_segments":[],"categories_sizes":[],"default_left":[1,1,1,1,1,1,1,1,1,0,0,1,0,0,0,0,0,0,0,0,0],"id":19,"left_children":[1,3,5,7,9,11,13,15,17,-1,-1,19,-1,-1,-1,-1,-1,-1,-1,-1,-1],"loss_changes":[4.4800198E2,1.6328905E2,1.5001886E2,3.0381174E2,3.699702E2,1.2993956E2,4.1470428E2,2.3038861E2,2.1638052E2,0E0,0E0,3.0143054E2,0E0,0E0,0E0,0E0,0E0,0E0,0E0,0E0,0E0],"parents":[2147483647,0,0,1,1,2,2,3,3,4,4,5,5,6,6,7,7,8,8,11,11],"right_children":[2,4,6,8,10,12,14,16,18,-1,-1,20,-1,-1,-1,-1,-1,-1,-1,-1,-1],"split_conditions":[6.0105E0,5.3732E0,2.5E0,1.4317101E1,1.582275E1,4.25E1,9.2631E0,5.0001E0,3.425E1,-3.7255695E0,-0E0,6.8662E0,-0E0,-0E0,4.2941675E0,7.677433E-2,-1.651178E0,3.2667072E0,-0E0,-0E0,2.3424897E0],"split_indices":[5,5,0,4,4,2,4,5,2,0,0,5,0,0,0,0,0,0,0,0,0],"split_type":[0,0,0,0,0,0,0,0,0,0,0,0,0,0,0,0,0,0,0,0,0],"sum_hessian":[1.27E2,9.8E1,2.9E1,9.4E1,4E0,2.3E1,6E0,8.9E1,5E0,3E0,1E0,2.1E1,2E0,1E0,5E0,8.2E1,7E0,4E0,1E0,1.4E1,7E0],"tree_param":{"num_deleted":"0","num_feature":"6","num_nodes":"21","size_leaf_vector":"0"}},{"base_weights":[7.0242816E-1,-0E0,5.621766E0,-5.115508E-1,4.2311943E-1,6.991909E0,-0E0,-0E0,-1.1754536E1,1.3660402E0,-0E0,-3.70975E-1,6.917919E-1,-0E0,1.9979541E0,-1.1789494E1,-0E0],"categories":[],"categories_nodes":[],"categories_segments":[],"categories_sizes":[],"default_left":[1,1,1,1,1,0,0,1,0,1,1,0,0,0,0,0,0],"id":20,"left_children":[1,3,5,7,9,-1,-1,11,-1,13,15,-1,-1,-1,-1,-1,-1],"loss_changes":[3.2987567E2,2.3338957E1,1.658848E2,1.8895549E2,7.898528E1,0E0,0E0,8.142334E0,0E0,1.139193E1,3.3734616E2,0E0,0E0,0E0,0E0,0E0,0E0],"parents":[2147483647,0,0,1,1,2,2,3,3,4,4,7,7,9,9,10,10],"right_children":[2,4,6,8,10,-1,-1,12,-1,14,16,-1,-1,-1,-1,-1,-1],"split_conditions":[3.85E1,3.37365E0,7.5379E0,3.3383E0,2.945E1,2.0975728E0,-0E0,2.86305E0,-3.5263608E0,4.0736E0,2.995E1,-1.11292504E-1,2.0753758E-1,-0E0,5.993863E-1,-3.5368483E0,-0E0],"split_indices":[1,5,5,5,1,0,0,5,0,5,1,0,0,0,0,0,0],"split_type":[0,0,0,0,0,0,0,0,0,0,0,0,0,0,0,0,0],"sum_hessian":[1.27E2,1.15E2,1.2E1,3.1E1,8.4E1,1.1E1,1E0,3E1,1E0,5E1,3.4E1,1.9E1,1.1E1,2.4E1,2.6E1,2E0,3.2E1],"tree_param":{"num_deleted":"0","num_feature":"6","num_nodes":"17","size_leaf_vector":"0"}},{"base_weights":[4.809236E-1,-0E0,3.765082E0,-8.2847595E-2,1.3837503E0,-0E0,5.9131927E0,-3.103117E0,-0E0,6.1585836E0,-0E0,-3.3246577E0,-0E0,-2.1101703E-1,6.545949E-1,-0E0,6.9385405E0,-4.0758934E0,-0E0],"categories":[],"categories_nodes":[],"categories_segments":[],"categories_sizes":[],"default_left":[1,1,1,1,1,0,0,1,1,1,1,1,1,0,0,0,0,0,0],"id":21,"left_children":[1,3,5,7,9,-1,-1,-1,13,15,17,-1,-1,-1,-1,-1,-1,-1,-1],"loss_changes":[1.4669212E2,3.213645E1,1.18495865E2,9.0094154E1,2.1231354E2,0E0,0E0,2.3709412E0,2.187201E1,1.751059E1,5.693389E1,0E0,0E0,0E0,0E0,0E0,0E0,0E0,0E0],"parents":[2147483647,0,0,1,1,2,2,3,3,4,4,7,7,8,8,9,9,10,10],"right_children":[2,4,6,8,10,-1,-1,-1,14,16,18,-1,-1,-1,-1,-1,-1,-1,-1],"split_conditions":[3.85E1,1.4092199E1,7.7889996E0,5E-1,3.935E1,-0E0,1.7739578E0,-9.3093514E-1,6.5126E0,2.7599998E1,1.5941351E1,-9.9739736E-1,-0E0,-6.330511E-2,1.9637848E-1,-0E0,2.0815623E0,-1.2227681E0,-0E0],"split_indices":[1,4,4,0,3,0,0,4,4,1,4,2147483647,2147483647,0,0,0,0,0,0],"split_type":[0,0,0,0,0,0,0,0,0,0,0,0,0,0,0,0,0,0,0],"sum_hessian":[1.27E2,1.15E2,1.2E1,9.9E1,1.6E1,4E0,8E0,9E0,9E1,6E0,1E1,8E0,1E0,4.4E1,4.6E1,1E0,5E0,3E0,7E0],"tree_param":{"num_deleted":"2","num_feature":"6","num_nodes":"19","size_leaf_vector":"0"}},{"base_weights":[3.33387E-1,-0E0,6.3512087E0,-3.2871723E-1,1.5026708E0,1.0453266E1,-0E0,7.836452E-2,-7.525597E0,-0E0,3.5745244E0,-0E0,1.5819898E0,-0E0,-1.1555705E1,-0E0,-3.7277064E0,1.016987E1,-0E0],"categories":[],"categories_nodes":[],"categories_segments":[],"categories_sizes":[],"default_left":[1,1,1,1,1,0,0,1,1,1,1,0,0,0,0,0,0,0,0],"id":22,"left_children":[1,3,5,7,9,-1,-1,11,13,15,17,-1,-1,-1,-1,-1,-1,-1,-1],"loss_changes":[2.0475394E2,7.009231E1,2.6483423E2,5.8064545E2,1.502197E2,0E0,0E0,7.311618E1,2.677027E2,4.7622112E1,3.5141083E2,0E0,0E0,0E0,0E0,0E0,0E0,0E0,0E0],"parents":[2147483647,0,0,1,1,2,2,3,3,4,4,7,7,8,8,9,9,10,10],"right_children":[2,4,6,8,10,-1,-1,12,14,16,18,-1,-1,-1,-1,-1,-1,-1,-1],"split_conditions":[7.4069E0,1.21553E1,1.24348E1,1.0858E1,5.1524E0,3.13598E0,-0E0,7.2864E0,3.385E1,5.0001E0,1.50414505E1,-0E0,4.7459695E-1,-0E0,-3.4667118E0,-0E0,-1.118312E0,3.0509613E0,-0E0],"split_indices":[5,4,4,4,5,0,0,4,1,5,4,0,0,0,0,0,0,0,0],"split_type":[0,0,0,0,0,0,0,0,0,0,0,0,0,0,0,0,0,0,0],"sum_hessian":[1.27E2,1.22E2,5E0,9.6E1,2.6E1,4E0,1E0,8.6E1,1E1,1E1,1.6E1,5.7E1,2.9E1,4E0,6E0,7E0,3E0,5E0,1.1E1],"tree_param":{"num_deleted":"0","num_feature":"6","num_nodes":"19","size_leaf_vector":"0"}},{"base_weights":[1.9678377E-1,-0E0,2.8617454E0,7.2792865E-2,-1.1255006E0,3.597046E0,-0E0,-0E0,1.7350922E0,-3.4468558E0,4.6473265E-1,-0E0,7.591454E0,-6.5272915E-1,-0E0,-0E0,3.127946E0,-5.388821E0,-0E0,3.860442E0,-0E0],"categories":[],"categories_nodes":[],"categories_segments":[],"categories_sizes":[],"default_left":[1,1,1,1,1,1,0,1,1,1,1,0,0,0,0,0,0,0,0,0,0],"id":23,"left_children":[1,3,5,7,9,11,-1,13,15,17,19,-1,-1,-1,-1,-1,-1,-1,-1,-1,-1],"loss_changes":[1.3778618E2,3.5185364E1,5.688643E1,7.911786E1,2.2121603E2,5.5526764E1,0E0,1.5093901E1,7.1379425E1,1.3534322E2,6.458884E1,0E0,0E0,0E0,0E0,0E0,0E0,0E0,0E0,0E0,0E0],"parents":[2147483647,0,0,1,1,2,2,3,3,4,4,5,5,7,7,8,8,9,9,10,10],"right_children":[2,4,6,8,10,12,-1,14,16,18,20,-1,-1,-1,-1,-1,-1,-1,-1,-1,-1],"split_conditions":[6.4747496E0,5.0001E0,7.5446E0,7.2864E0,1.575815E1,4.05E1,-0E0,3.5646E0,4.2191E0,6.0105E0,4.155E1,-0E0,2.2774363E0,-1.9581875E-1,-0E0,-0E0,9.383838E-1,-1.6166464E0,-0E0,1.1581327E0,-0E0],"split_indices":[5,5,5,4,4,2,0,5,5,5,3,0,0,0,0,0,0,0,0,0,0],"split_type":[0,0,0,0,0,0,0,0,0,0,0,0,0,0,0,0,0,0,0,0,0],"sum_hessian":[1.27E2,1.1E2,1.7E1,8.3E1,2.7E1,1.5E1,2E0,5.7E1,2.6E1,2.1E1,6E0,1.1E1,4E0,3.5E1,2.2E1,1.1E1,1.5E1,1.3E1,8E0,4E0,2E0],"tree_param":{"num_deleted":"0","num_feature":"6","num_nodes":"21","size_leaf_vector":"0"}},{"base_weights":[1.9718973E-1,-0E0,2.3390038E0,7.928355E-2,-6.301469E-1,-0E0,7.488094E0,-2.9226756E-1,1.2161143E0,-3.1758168E0,1.7803632E-4,-2.0423412E-1,5.086964E0,-0E0,-4.8143086E0,-0E0,2.4126284E0,-5.963923E0,-0E0,3.2672036E0,-0E0,-3.255904E0,-0E0],"categories":[],"categories_nodes":[],"categories_segments":[],"categories_sizes":[],"default_left":[1,1,1,1,1,1,0,1,1,1,1,1,0,0,0,0,0,0,0,0,0,0,0],"id":24,"left_children":[1,3,5,7,9,11,-1,13,15,17,19,21,-1,-1,-1,-1,-1,-1,-1,-1,-1,-1,-1],"loss_changes":[9.038768E1,1.4150896E1,9.681958E1,6.938776E1,1.8226746E2,8.916008E1,0E0,1.23102165E2,1.2738793E2,2.4607341E2,7.928134E1,7.8257256E1,0E0,0E0,0E0,0E0,0E0,0E0,0E0,0E0,0E0,0E0,0E0],"parents":[2147483647,0,0,1,1,2,2,3,3,4,4,5,5,7,7,8,8,9,9,10,10,11,11],"right_children":[2,4,6,8,10,12,-1,14,16,18,20,22,-1,-1,-1,-1,-1,-1,-1,-1,-1,-1,-1],"split_conditions":[6.4747496E0,4.73385E0,2.5E0,3.37365E0,1.39589E1,1.2644501E1,2.2464283E0,2.265E1,6.13885E0,6.0105E0,3.935E1,7.4069E0,1.5260893E0,-0E0,-1.4442927E0,-0E0,7.2378856E-1,-1.789177E0,-0E0,9.8016113E-1,-0E0,-9.7677124E-1,-0E0],"split_indices":[5,5,0,5,4,4,0,3,4,5,3,5,0,0,0,0,0,0,0,0,0,0,0],"split_type":[0,0,0,0,0,0,0,0,0,0,0,0,0,0,0,0,0,0,0,0,0,0,0],"sum_hessian":[1.27E2,1.1E2,1.7E1,7.6E1,3.4E1,1.4E1,3E0,3.1E1,4.5E1,1.9E1,1.5E1,1.1E1,3E0,2.6E1,5E0,1.2E1,3.3E1,1.2E1,7E0,7E0,8E0,7E0,4E0],"tree_param":{"num_deleted":"0","num_feature":"6","num_nodes":"23","size_leaf_vector":"0"}},{"base_weights":[1.4590849E-1,-0E0,1.2157261E0,-0E0,-5.500648E0,2.3842688E0,-0E0,-1.797176E-1,1.1566151E0,-0E0,3.9040072E0,-1.8499901E0,2.2850647E0,-0E0,-1.06285E0,-0E0,2.3975291E0,-0E0,-3.1216173E0,1.4364773E1,-0E0],"categories":[],"categories_nodes":[],"categories_segments":[],"categories_sizes":[],"default_left":[1,1,1,1,0,1,1,1,1,0,0,1,1,0,0,0,0,0,0,0,0],"id":25,"left_children":[1,3,5,7,-1,9,11,13,15,-1,-1,17,19,-1,-1,-1,-1,-1,-1,-1,-1],"loss_changes":[6.2949963E1,7.343671E1,4.4775093E1,3.4532352E1,0E0,1.094493E2,1.1264107E2,3.1387508E1,3.875516E1,0E0,0E0,5.907544E1,4.307117E2,0E0,0E0,0E0,0E0,0E0,0E0,0E0,0E0],"parents":[2147483647,0,0,1,1,2,2,3,3,5,5,6,6,7,7,8,8,11,11,12,12],"right_children":[2,4,6,8,-1,10,12,14,16,-1,-1,18,20,-1,-1,-1,-1,-1,-1,-1,-1],"split_conditions":[2.995E1,2.945E1,1.0858E1,8.0717E0,-1.6501945E0,7.12E0,1.2644501E1,2.265E1,5E-1,-0E0,1.1712022E0,3.385E1,1.503325E1,-0E0,-3.1885502E-1,-0E0,7.192588E-1,-0E0,-9.3648523E-1,4.309432E0,-0E0],"split_indices":[1,1,4,4,0,4,4,3,0,0,0,1,4,0,0,0,0,0,0,0,0],"split_type":[0,0,0,0,0,0,0,0,0,0,0,0,0,0,0,0,0,0,0,0,0],"sum_hessian":[1.27E2,8.3E1,4.4E1,8.1E1,2E0,1.9E1,2.5E1,5.7E1,2.4E1,5E0,1.4E1,1.2E1,1.3E1,2.8E1,2.9E1,1.2E1,1.2E1,2E0,1E1,2E0,1.1E1],"tree_param":{"num_deleted":"0","num_feature":"6","num_nodes":"21","size_leaf_vector":"0"}},{"base_weights":[5.3816967E-2,-0E0,2.1425834E0,-0E0,-6.6337883E-1,2.723948E0,-0E0,-1.00705296E-1,5.8897364E-1,-1.060207E0,-0E0,-0E0,6.922068E0,-0E0,-7.866454E0,-0E0,1.6032084E0,-0E0,-3.3585973E0,1.7404145E0,-0E0],"categories":[],"categories_nodes":[],"categories_segments":[],"categories_sizes":[],"default_left":[1,1,1,1,1,1,0,1,1,1,0,1,0,0,0,0,0,0,0,0,0],"id":26,"left_children":[1,3,5,7,9,11,-1,13,15,17,-1,19,-1,-1,-1,-1,-1,-1,-1,-1,-1],"loss_changes":[7.9632835E1,1.2069879E1,3.4465424E1,1.8505152E1,1.6511158E1,4.974166E1,0E0,8.799104E1,3.4316845E1,4.3917633E1,0E0,2.552601E1,0E0,0E0,0E0,0E0,0E0,0E0,0E0,0E0,0E0],"parents":[2147483647,0,0,1,1,2,2,3,3,4,4,5,5,7,7,8,8,9,9,11,11],"right_children":[2,4,6,8,10,12,-1,14,16,18,-1,20,-1,-1,-1,-1,-1,-1,-1,-1,-1],"split_conditions":[6.4747496E0,5.0001E0,7.5446E0,3.37365E0,5.215E1,7.4069E0,-0E0,3.3383E0,2.5E0,3.455E1,-0E0,6.9874E0,2.0766206E0,-0E0,-2.3599362E0,-0E0,4.8096254E-1,-0E0,-1.0075792E0,5.2212435E-1,-0E0],"split_indices":[5,5,5,5,1,5,0,5,0,1,0,5,0,0,0,0,0,0,0,0,0],"split_type":[0,0,0,0,0,0,0,0,0,0,0,0,0,0,0,0,0,0,0,0,0],"sum_hessian":[1.27E2,1.1E2,1.7E1,8.3E1,2.7E1,1.5E1,2E0,3.1E1,5.2E1,2.5E1,2E0,1.2E1,3E0,3E1,1E0,3.2E1,2E1,1.9E1,6E0,8E0,4E0],"tree_param":{"num_deleted":"0","num_feature":"6","num_nodes":"21","size_leaf_vector":"0"}},{"base_weights":[-0E0,-0E0,6.904239E-1,-0E0,-4.140823E0,8.730937E-1,-0E0,-1.8886279E-1,2.2070184E-1,-0E0,5.228062E0,-2.8244227E-1,2.9030952E-1,2.0239403E0,-0E0,1.5331087E0,-0E0],"categories":[],"categories_nodes":[],"categories_segments":[],"categories_sizes":[],"default_left":[1,1,1,1,0,1,1,0,1,1,0,1,1,0,0,0,0],"id":27,"left_children":[1,3,5,7,-1,9,-1,-1,13,15,-1,-1,-1,-1,-1,-1,-1],"loss_changes":[2.1177734E1,4.1615852E1,5.0657845E0,3.8771696E0,0E0,4.0095173E1,8.948374E-1,0E0,8.419594E1,1.510637E1,0E0,0E0,0E0,0E0,0E0,0E0,0E0],"parents":[2147483647,0,0,1,1,2,2,3,3,5,5,6,6,8,8,9,9],"right_children":[2,4,6,8,-1,10,-1,-1,14,16,-1,-1,-1,-1,-1,-1,-1],"split_conditions":[2.995E1,2.945E1,4.275E1,1.23E1,-1.2422469E0,3.85E1,-0E0,-5.6658838E-2,2.265E1,3.865E1,1.5684187E0,-8.473268E-2,8.709286E-2,6.0718215E-1,-0E0,4.5993263E-1,-0E0],"split_indices":[1,1,2,1,0,1,1,0,3,3,0,2147483647,2147483647,0,0,0,0],"split_type":[0,0,0,0,0,0,0,0,0,0,0,0,0,0,0,0,0],"sum_hessian":[1.27E2,8.3E1,4.4E1,8.1E1,2E0,3.4E1,1E1,8E0,7.3E1,3.2E1,2E0,4E0,6E0,2.1E1,5.2E1,6E0,2.6E1],"tree_param":{"num_deleted":"2","num_feature":"6","num_nodes":"17","size_leaf_vector":"0"}},{"base_weights":[-0E0,-4.452128E-2,1.4026493E0,-4.1462487E-1,-0E0,1.9179022E0,-0E0,-0E0,-3.0963128E0,2.592626E0,-0E0,-0E0,5.1042395E0,-1.8097542E-1,1.2479702E0,-0E0,-7.6744227E0,-0E0,1.5789304E0],"categories":[],"categories_nodes":[],"categories_segments":[],"categories_sizes":[],"default_left":[1,1,1,1,1,1,0,1,1,0,0,1,0,0,0,0,0,0,0],"id":28,"left_children":[1,3,5,7,9,11,-1,13,15,-1,-1,17,-1,-1,-1,-1,-1,-1,-1],"loss_changes":[3.450537E1,1.7733576E1,2.2459728E1,1.10775085E2,2.9757599E1,3.254059E1,0E0,1.8906366E1,1.3201358E2,0E0,0E0,8.543801E0,0E0,0E0,0E0,0E0,0E0,0E0,0E0],"parents":[2147483647,0,0,1,1,2,2,3,3,4,4,5,5,7,7,8,8,11,11],"right_children":[2,4,6,8,10,12,-1,14,16,-1,-1,18,-1,-1,-1,-1,-1,-1,-1],"split_conditions":[6.4747496E0,1.575815E1,7.5446E0,5.2792997E0,1.67033E1,7.4069E0,-0E0,3.25E1,1.09858E1,7.7778786E-1,-0E0,1.261575E1,1.5312719E0,-5.429263E-2,3.7439108E-1,-0E0,-2.302327E0,-0E0,4.7367913E-1],"split_indices":[5,4,5,5,4,5,0,2,4,0,0,4,0,0,0,0,0,0,0],"split_type":[0,0,0,0,0,0,0,0,0,0,0,0,0,0,0,0,0,0,0],"sum_hessian":[1.27E2,1.1E2,1.7E1,1.04E2,6E0,1.5E1,2E0,9.1E1,1.3E1,4E0,2E0,1.2E1,3E0,8.1E1,1E1,9E0,4E0,9E0,3E0],"tree_param":{"num_deleted":"0","num_feature":"6","num_nodes":"19","size_leaf_vector":"0"}},{"base_weights":[-0E0,-1.020889E-2,4.7530723E-1,-0E0,-3.0948007E0,6.72595E-1,-0E0,-1.8292513E-1,1.24241345E-1,-0E0,3.586258E0,-4.5157814E-1,-0E0,1.7985888E0,-0E0,9.8721856E-1,-0E0],"categories":[],"categories_nodes":[],"categories_segments":[],"categories_sizes":[],"default_left":[1,1,1,1,0,1,1,0,1,1,0,1,1,0,0,1,1],"id":29,"left_children":[1,3,5,7,-1,9,-1,-1,13,-1,-1,-1,-1,-1,-1,-1,-1],"loss_changes":[1.0045528E1,2.3237442E1,5.5374317E0,1.469475E0,0E0,1.5641105E1,9.0278417E-1,0E0,5.8523075E1,6.2638426E0,0E0,0E0,0E0,0E0,0E0,0E0,0E0],"parents":[2147483647,0,0,1,1,2,2,3,3,5,5,6,6,8,8,9,9],"right_children":[2,4,6,8,-1,10,-1,-1,14,-1,-1,-1,-1,-1,-1,-1,-1],"split_conditions":[2.995E1,2.945E1,4.275E1,1.61E1,-9.284403E-1,3.85E1,-0E0,-5.4877542E-2,2.265E1,-0E0,1.0758774E0,-1.3547345E-1,-0E0,5.3957665E-1,-0E0,2.961656E-1,-0E0],"split_indices":[1,1,2,3,0,1,1,0,3,3,0,2147483647,2147483647,0,0,2147483647,2147483647],"split_type":[0,0,0,0,0,0,0,0,0,0,0,0,0,0,0,0,0],"sum_hessian":[1.27E2,8.3E1,4.4E1,8.1E1,2E0,3.4E1,1E1,1.1E1,7E1,3.2E1,2E0,4E0,6E0,1.8E1,5.2E1,6E0,2.6E1],"tree_param":{"num_deleted":"4","num_feature":"6","num_nodes":"17","size_leaf_vector":"0"}},{"base_weights":[-0E0,-5.879161E-2,9.957713E-1,-5.4373175E-1,-0E0,-0E0,3.6125762E0,-0E0,-6.1747384E0,1.0412377E0,-1.7961062E-1,8.97373E-2,-0E0,-5.2985144E-1,2.4429736E-1,1.3594964E0,-0E0,-9.8780173E-1,-0E0,-0E0,2.1749444E0],"categories":[],"categories_nodes":[],"categories_segments":[],"categories_sizes":[],"default_left":[1,1,1,1,1,1,0,1,0,1,1,1,0,0,0,0,0,0,0,0,0],"id":30,"left_children":[1,3,5,7,9,11,-1,13,-1,15,17,19,-1,-1,-1,-1,-1,-1,-1,-1,-1],"loss_changes":[1.7661695E1,8.90955E0,2.7445904E1,4.5119904E1,2.4063675E1,1.00072645E-1,0E0,6.3570533E0,0E0,1.1910944E1,2.8747934E1,3.50329E1,0E0,0E0,0E0,0E0,0E0,0E0,0E0,0E0,0E0],"parents":[2147483647,0,0,1,1,2,2,3,3,4,4,5,5,7,7,9,9,10,10,11,11],"right_children":[2,4,6,8,10,12,-1,14,-1,16,18,20,-1,-1,-1,-1,-1,-1,-1,-1,-1],"split_conditions":[6.4747496E0,3.37365E0,2.5E0,3.3383E0,3.82265E0,3.94E1,1.0837729E0,2.91125E0,-1.8524216E0,2.16E1,2.995E1,6.8662E0,-0E0,-1.5895544E-1,7.328921E-2,4.0784892E-1,-0E0,-2.9634053E-1,-0E0,-0E0,6.5248334E-1],"split_indices":[5,5,0,5,5,1,0,5,0,1,1,5,0,0,0,0,0,0,0,0,0],"split_type":[0,0,0,0,0,0,0,0,0,0,0,0,0,0,0,0,0,0,0,0,0],"sum_hessian":[1.27E2,1.1E2,1.7E1,3.1E1,7.9E1,1.4E1,3E0,3E1,1E0,2E1,5.9E1,1.2E1,2E0,2E1,1E1,1.8E1,2E0,3.1E1,2.8E1,5E0,7E0],"tree_param":{"num_deleted":"0","num_feature":"6","num_nodes":"21","size_leaf_vector":"0"}},{"base_weights":[-0E0,-3.2394272E-1,3.945808E-1,-0E0,-5.498157E-1,1.6700568E0,-0E0,-4.8766956E0,-0E0,-0E0,3.8782415E0,-2.6778316E0,3.6063707E-1,2.7681276E-1,-0E0,-0E0,-4.705485E0,-0E0,1.3295023E0],"categories":[],"categories_nodes":[],"categories_segments":[],"categories_sizes":[],"default_left":[1,1,1,0,1,1,1,0,0,1,0,1,1,1,1,0,0,0,0],"id":31,"left_children":[1,3,5,-1,7,9,11,-1,-1,-1,-1,15,17,-1,-1,-1,-1,-1,-1],"loss_changes":[1.699141E1,4.078585E0,7.38988E1,0E0,2.3834312E1,4.1885895E1,9.280915E1,0E0,0E0,1.0288547E0,0E0,3.1052391E1,2.1803782E1,0E0,0E0,0E0,0E0,0E0,0E0],"parents":[2147483647,0,0,1,1,2,2,4,4,5,5,6,6,9,9,11,11,12,12],"right_children":[2,4,6,-1,8,10,12,-1,-1,-1,-1,16,18,-1,-1,-1,-1,-1,-1],"split_conditions":[7.2864E0,1.88E1,1.0858E1,-0E0,2.065E1,9.8832E0,1.21553E1,-1.4630088E0,-0E0,-0E0,1.1634725E0,1.15042E1,3.1349998E1,8.304383E-2,-0E0,-0E0,-1.4116455E0,-0E0,3.988507E-1],"split_indices":[4,1,4,0,2,4,4,0,0,4,0,4,1,2147483647,2147483647,0,0,0,0],"split_type":[0,0,0,0,0,0,0,0,0,0,0,0,0,0,0,0,0,0,0],"sum_hessian":[1.27E2,5.7E1,7E1,2.4E1,3.3E1,3E1,4E1,1E0,3.2E1,2.2E1,8E0,1.2E1,2.8E1,1.3E1,9E0,7E0,5E0,1.4E1,1.4E1],"tree_param":{"num_deleted":"2","num_feature":"6","num_nodes":"19","size_leaf_vector":"0"}},{"base_weights":[-0E0,-2.9846677E-1,2.8335127E-1,-0E0,-7.455458E-1,1.3641562E0,-0E0,-0E0,4.5140004E-1,-1.0269414E0,-0E0,-0E0,1.4859539E0,-2.1098678E0,1.642031E-1,-1.6058801E0,-0E0,-0E0,-4.061622E0,9.286346E-1,-0E0],"categories":[],"categories_nodes":[],"categories_segments":[],"categories_sizes":[],"default_left":[1,1,1,1,1,1,1,1,1,1,0,0,0,1,1,0,0,0,0,0,0],"id":32,"left_children":[1,3,5,-1,9,11,13,-1,-1,15,-1,-1,-1,17,19,-1,-1,-1,-1,-1,-1],"loss_changes":[1.0770189E1,1.1796804E1,5.0968E1,2.328406E0,1.0957691E1,8.354301E0,5.6086174E1,0E0,0E0,1.707162E1,0E0,0E0,0E0,1.1669362E2,2.202325E1,0E0,0E0,0E0,0E0,0E0,0E0],"parents":[2147483647,0,0,1,1,2,2,3,3,4,4,5,5,6,6,9,9,13,13,14,14],"right_children":[2,4,6,-1,10,12,14,-1,-1,16,-1,-1,-1,18,20,-1,-1,-1,-1,-1,-1],"split_conditions":[7.2864E0,2.265E1,1.0858E1,-0E0,3.615E1,1.835E1,1.21553E1,-0E0,1.3542002E-1,6.5126E0,-0E0,-0E0,4.457862E-1,2.95E1,4.62E1,-4.8176405E-1,-0E0,-0E0,-1.2184867E0,2.7859038E-1,-0E0],"split_indices":[4,3,4,2,2,2,4,2147483647,2147483647,4,0,0,0,3,3,0,0,0,0,0,0],"split_type":[0,0,0,0,0,0,0,0,0,0,0,0,0,0,0,0,0,0,0,0,0],"sum_hessian":[1.27E2,5.7E1,7E1,2.7E1,3E1,3E1,4E1,1.6E1,1.1E1,2.6E1,4E0,1E0,2.9E1,1.2E1,2.8E1,1.7E1,9E0,2E0,1E1,2.6E1,2E0],"tree_param":{"num_deleted":"2","num_feature":"6","num_nodes":"21","size_leaf_vector":"0"}},{"base_weights":[-0E0,-1.2040703E-1,9.362214E-1,-0E0,-6.179645E-1,1.5350416E0,-0E0,-3.7229246E-1,4.3319064E-1,-9.594004E-1,-0E0,-0E0,2.3227518E0,-0E0,-1.1890246E0,-0E0,9.774942E-1,-2.769568E0,-0E0],"categories":[],"categories_nodes":[],"categories_segments":[],"categories_sizes":[],"default_left":[1,1,1,1,1,1,0,1,1,1,0,1,1,0,0,0,0,0,0],"id":33,"left_children":[1,3,5,7,9,-1,-1,13,15,17,-1,-1,-1,-1,-1,-1,-1,-1,-1],"loss_changes":[1.6875982E1,1.1546066E1,1.8720278E1,1.2880428E1,1.3939117E1,6.075142E0,0E0,1.8868433E1,3.0103294E1,2.9883389E1,0E0,0E0,0E0,0E0,0E0,0E0,0E0,0E0,0E0],"parents":[2147483647,0,0,1,1,2,2,3,3,4,4,5,5,7,7,8,8,9,9],"right_children":[2,4,6,8,10,-1,-1,14,16,18,-1,-1,-1,-1,-1,-1,-1,-1,-1],"split_conditions":[6.4747496E0,4.73385E0,3.94E1,3.37365E0,4.26E1,4.605125E-1,-0E0,3E0,5E-1,5.0885E0,-0E0,-0E0,6.9682556E-1,-0E0,-3.567074E-1,-0E0,2.9324827E-1,-8.3087045E-1,-0E0],"split_indices":[5,5,1,5,1,5,0,0,0,5,0,2147483647,2147483647,0,0,0,0,0,0],"split_type":[0,0,0,0,0,0,0,0,0,0,0,0,0,0,0,0,0,0,0],"sum_hessian":[1.27E2,1.1E2,1.7E1,7.6E1,3.4E1,1.4E1,3E0,3.1E1,4.5E1,2.9E1,5E0,7E0,7E0,1.5E1,1.6E1,5E0,4E1,7E0,2.2E1],"tree_param":{"num_deleted":"2","num_feature":"6","num_nodes":"19","size_leaf_vector":"0"}},{"base_weights":[-0E0,-1.0075413E-1,7.8613347E-1,-0E0,-4.3654612E-1,1.8887146E0,-0E0,-1.646699E-1,3.1966355E0,-7.7336484E-1,-0E0,-3.408114E-1,-0E0,3.8823817E0,-0E0,-0E0,-1.185817E0],"categories":[],"categories_nodes":[],"categories_segments":[],"categories_sizes":[],"default_left":[1,1,1,1,1,0,0,1,1,1,0,1,1,1,1,0,0],"id":34,"left_children":[1,3,5,7,9,-1,-1,-1,-1,15,-1,-1,-1,-1,-1,-1,-1],"loss_changes":[7.6360493E0,1.5659723E1,2.0050224E1,9.68844E1,3.424159E1,0E0,0E0,1.5864463E0,5.442734E-1,2.5439934E1,0E0,0E0,0E0,0E0,0E0,0E0,0E0],"parents":[2147483647,0,0,1,1,2,2,3,3,4,4,7,7,8,8,9,9],"right_children":[2,4,6,8,10,-1,-1,-1,-1,16,-1,-1,-1,-1,-1,-1,-1],"split_conditions":[6.8662E0,2.265E1,3.94E1,2.91125E0,5E0,5.666144E-1,-0E0,-4.9400974E-2,9.589907E-1,1.5E0,-0E0,-1.0224342E-1,-0E0,1.1647146E0,-0E0,-0E0,-3.557451E-1],"split_indices":[5,3,1,5,0,0,0,1,1,0,0,2147483647,2147483647,2147483647,2147483647,0,0],"split_type":[0,0,0,0,0,0,0,0,0,0,0,0,0,0,0,0,0],"sum_hessian":[1.27E2,1.17E2,1E1,2.9E1,8.8E1,7E0,3E0,2E1,9E0,8.5E1,3E0,1.8E1,2E0,6E0,3E0,3.1E1,5.4E1],"tree_param":{"num_deleted":"4","num_feature":"6","num_nodes":"17","size_leaf_vector":"0"}},{"base_weights":[-0E0,-3.0837962E-1,1.41647E-1,-0E0,-3.0147033E0,6.3721764E-1,-0E0,-1.5046434E-1,-0E0,-0E0,1.4326067E0,-1.2027717E0,1.1119514E-1,-4.968316E-1,-0E0,-2.3055186E0,-0E0,3.4471295E0,-0E0],"categories":[],"categories_nodes":[],"categories_segments":[],"categories_sizes":[],"default_left":[1,1,1,1,0,1,1,1,1,0,0,1,1,1,1,0,0,0,0],"id":35,"left_children":[1,3,5,-1,-1,9,11,-1,-1,-1,-1,15,17,-1,-1,-1,-1,-1,-1],"loss_changes":[4.923353E0,9.981342E0,2.0977314E1,5.5301744E-1,0E0,6.826846E1,2.9803612E1,4.2423964E0,0E0,0E0,0E0,5.776575E1,2.8587793E1,0E0,0E0,0E0,0E0,0E0,0E0],"parents":[2147483647,0,0,1,1,2,2,3,3,5,5,6,6,7,7,11,11,12,12],"right_children":[2,4,6,-1,-1,10,12,-1,-1,-1,-1,16,18,-1,-1,-1,-1,-1,-1],"split_conditions":[3.37365E0,3.3383E0,1.0858E1,-0E0,-9.04411E-1,6.13885E0,1.27651005E1,-4.5139305E-2,-0E0,-0E0,4.2978203E-1,7.4069E0,1.375765E1,-1.4904949E-1,-0E0,-6.9165564E-1,-0E0,1.0341389E0,-0E0],"split_indices":[5,5,4,5,0,4,4,2147483647,2147483647,0,0,5,4,2147483647,2147483647,0,0,0,0],"split_type":[0,0,0,0,0,0,0,0,0,0,0,0,0,0,0,0,0,0,0],"sum_hessian":[1.27E2,3.1E1,9.6E1,3E1,1E0,5.6E1,4E1,2.4E1,6E0,1.2E1,4.4E1,2E1,2E1,1.9E1,5E0,1.6E1,4E0,2E0,1.8E1],"tree_param":{"num_deleted":"4","num_feature":"6","num_nodes":"19","size_leaf_vector":"0"}},{"base_weights":[-0E0,-7.925608E-2,7.7779286E-2,-0E0,-3.9534652E-1,-0E0,1.1712427E0,-0E0,1.2975792E0,-7.594901E-1,-0E0,-0E0,-1.0668328E-1,-0E0,-1.0971247E0,-0E0,-5.314749E-1],"categories":[],"categories_nodes":[],"categories_segments":[],"categories_sizes":[],"default_left":[1,1,1,1,1,1,0,0,0,1,0,1,1,0,0,1,1],"id":36,"left_children":[1,3,5,7,9,-1,-1,-1,-1,13,-1,-1,-1,-1,-1,-1,-1],"loss_changes":[7.955993E-1,9.7830515E0,1.8223238E1,2.0923632E1,2.6780685E1,6.1767425E-2,0E0,0E0,0E0,1.3905582E1,0E0,0E0,9.0626687E-1,0E0,0E0,0E0,0E0],"parents":[2147483647,0,0,1,1,2,2,3,3,4,4,5,5,9,9,12,12],"right_children":[2,4,6,8,10,-1,-1,-1,-1,14,-1,-1,-1,-1,-1,-1,-1],"split_conditions":[3.955E1,2.265E1,2.5E0,1.785E1,5E0,-0E0,3.5137284E-1,-0E0,3.8927376E-1,1.5E0,-0E0,-0E0,-3.2004986E-2,-0E0,-3.291374E-1,-0E0,-1.5944247E-1],"split_indices":[3,3,0,2,0,3,0,0,0,0,0,2147483647,2147483647,0,0,2147483647,2147483647],"split_type":[0,0,0,0,0,0,0,0,0,0,0,0,0,0,0,0,0],"sum_hessian":[1.27E2,9.5E1,3.2E1,2.9E1,6.6E1,1.9E1,1.3E1,1.7E1,1.2E1,6.4E1,2E0,1.4E1,5E0,2.2E1,4.2E1,2E0,3E0],"tree_param":{"num_deleted":"4","num_feature":"6","num_nodes":"17","size_leaf_vector":"0"}},{"base_weights":[-0E0,-9.26273E-2,5.607522E-1,-0E0,-3.3843908E-1,1.0876985E0,-0E0,8.020846E-2,-0E0,-4.40931E-1,-0E0,-0E0,1.5391493E0,-0E0,6.449524E-1,-5.4711354E-1,-0E0],"categories":[],"categories_nodes":[],"categories_segments":[],"categories_sizes":[],"default_left":[1,1,1,1,1,1,0,1,0,1,0,1,1,0,0,0,0],"id":37,"left_children":[1,3,5,7,9,-1,-1,13,-1,15,-1,-1,-1,-1,-1,-1,-1],"loss_changes":[6.427271E0,7.921132E0,1.158869E1,1.9574952E-1,5.99039E0,5.261078E-1,0E0,8.301176E0,0E0,7.4195356E0,0E0,0E0,0E0,0E0,0E0,0E0,0E0],"parents":[2147483647,0,0,1,1,2,2,3,3,4,4,5,5,7,7,9,9],"right_children":[2,4,6,8,10,-1,-1,14,-1,16,-1,-1,-1,-1,-1,-1,-1],"split_conditions":[6.4747496E0,1.5E0,3.94E1,6.1103E0,5.5E0,3.2630956E-1,-0E0,2.355E1,-0E0,5.215E1,-0E0,-0E0,4.6174482E-1,-0E0,1.9348574E-1,-1.6413407E-1,-0E0],"split_indices":[5,0,1,5,0,5,0,1,0,1,0,2147483647,2147483647,0,0,0,0],"split_type":[0,0,0,0,0,0,0,0,0,0,0,0,0,0,0,0,0],"sum_hessian":[1.27E2,1.1E2,1.7E1,3.3E1,7.7E1,1.4E1,3E0,3E1,3E0,7.6E1,1E0,7E0,7E0,1E1,2E1,7.4E1,2E0],"tree_param":{"num_deleted":"2","num_feature":"6","num_nodes":"17","size_leaf_vector":"0"}},{"base_weights":[-0E0,-6.664985E-2,7.4468754E-2,-0E0,-2.0353086E0,6.1773545E-1,-0E0,-0E0,2.1635895E0,-1.1373175E0,-0E0,-0E0,-2.9603908E0,5.067943E-1,-0E0],"categories":[],"categories_nodes":[],"categories_segments":[],"categories_sizes":[],"default_left":[1,1,1,1,1,1,1,0,0,1,1,0,0,0,0],"id":38,"left_children":[1,-1,5,-1,-1,7,9,-1,-1,11,13,-1,-1,-1,-1],"loss_changes":[6.60007E-1,5.7143292E0,1.6108997E1,0E0,0E0,2.287655E1,1.607433E1,0E0,0E0,7.530777E1,6.7875447E0,0E0,0E0,0E0,0E0],"parents":[2147483647,0,0,1,1,2,2,5,5,6,6,9,9,10,10],"right_children":[2,-1,6,-1,-1,8,10,-1,-1,12,14,-1,-1,-1,-1],"split_conditions":[6.5126E0,-1.9994956E-2,1.0858E1,-0E0,-6.105926E-1,9.8832E0,1.21553E1,-0E0,6.490769E-1,2.95E1,4.62E1,-0E0,-8.8811725E-1,1.5203829E-1,-0E0],"split_indices":[4,4,4,2147483647,2147483647,4,4,0,0,3,3,0,0,0,0],"split_type":[0,0,0,0,0,0,0,0,0,0,0,0,0,0,0],"sum_hessian":[1.27E2,4.4E1,8.3E1,4.3E1,1E0,4.3E1,4E1,3.5E1,8E0,1.2E1,2.8E1,2E0,1E1,2.6E1,2E0],"tree_param":{"num_deleted":"2","num_feature":"6","num_nodes":"15","size_leaf_vector":"0"}},{"base_weights":[-0E0],"categories":[],"categories_nodes":[],"categories_segments":[],"categories_sizes":[],"default_left":[0],"id":39,"left_children":[-1],"loss_changes":[0E0],"parents":[2147483647],"right_children":[-1],"split_conditions":[-0E0],"split_indices":[0],"split_type":[0],"sum_hessian":[1.27E2],"tree_param":{"num_deleted":"0","num_feature":"6","num_nodes":"1","size_leaf_vector":"0"}},{"base_weights":[-0E0,-5.193142E-2,5.509737E-1,-0E0,-7.0776474E-1,1.0593154E0,-0E0,-2.138247E-1,3.8905802E-1,-2.3037393E0,-0E0,-0E0,1.665455E0,-4.961427E-1,-0E0,-0E0,1.072674E0,-0E0,-3.6871614E0,9.6562403E-1,-0E0,-0E0,2.0268068E0],"categories":[],"categories_nodes":[],"categories_segments":[],"categories_sizes":[],"default_left":[1,1,1,1,1,1,0,1,1,1,1,0,1,1,1,0,0,0,0,1,1,1,1],"id":40,"left_children":[1,3,5,7,9,11,-1,-1,15,17,-1,-1,-1,-1,-1,-1,-1,-1,-1,-1,-1,-1,-1],"loss_changes":[5.5881844E0,1.344127E1,1.089897E1,9.372564E0,9.9979095E1,1.2732687E1,0E0,4.5760345E0,3.8580925E1,5.5230072E1,4.1279483E0,0E0,5.695982E0,0E0,0E0,0E0,0E0,0E0,0E0,0E0,0E0,0E0,0E0],"parents":[2147483647,0,0,1,1,2,2,3,3,4,4,5,5,7,7,8,8,9,9,10,10,12,12],"right_children":[2,4,6,8,10,12,-1,-1,16,18,-1,-1,-1,-1,-1,-1,-1,-1,-1,-1,-1,-1,-1],"split_conditions":[6.4747496E0,5.0001E0,4.25E1,3.37365E0,1.575815E1,1.1135799E1,-0E0,-6.414741E-2,6.13885E0,3.35E1,-0E0,-0E0,4.996365E-1,-1.4884281E-1,-0E0,-0E0,3.2180223E-1,-0E0,-1.1061485E0,2.8968722E-1,-0E0,-0E0,6.0804206E-1],"split_indices":[5,5,2,5,4,4,0,4,4,2,4,0,0,2147483647,2147483647,0,0,0,0,2147483647,2147483647,2147483647,2147483647],"split_type":[0,0,0,0,0,0,0,0,0,0,0,0,0,0,0,0,0,0,0,0,0,0,0],"sum_hessian":[1.27E2,1.1E2,1.7E1,8.3E1,2.7E1,1.4E1,3E0,3.1E1,5.2E1,2.1E1,6E0,4E0,1E1,2.4E1,7E0,1.2E1,4E1,9E0,1.2E1,4E0,2E0,2E0,8E0],"tree_param":{"num_deleted":"6","num_feature":"6","num_nodes":"23","size_leaf_vector":"0"}},{"base_weights":[-0E0,-3.0287053E-2,2.642742E-1,-3.4327865E-1,-0E0,-0E0,1.5135334E0,-0E0,-1.8512516E0,1.5117152E0,-0E0,-0E0,1.1025907E0,-2.9885256E0,-0E0],"categories":[],"categories_nodes":[],"categories_segments":[],"categories_sizes":[],"default_left":[1,1,1,1,1,0,0,1,1,0,0,0,0,0,0],"id":41,"left_children":[1,3,5,7,9,-1,-1,11,13,-1,-1,-1,-1,-1,-1],"loss_changes":[1.3184181E0,1.1379536E1,6.6335926E0,6.195264E1,2.3828844E1,0E0,0E0,6.5977435E0,7.328154E1,0E0,0E0,0E0,0E0,0E0,0E0],"parents":[2147483647,0,0,1,1,2,2,3,3,4,4,7,7,8,8],"right_children":[2,4,6,8,10,-1,-1,12,14,-1,-1,-1,-1,-1,-1],"split_conditions":[6.4747496E0,1.4221149E1,2.5E0,4.73385E0,6.1103E0,-0E0,4.5406002E-1,4.57135E0,4.26E1,4.5351458E-1,-0E0,-0E0,3.3077723E-1,-8.9655775E-1,-0E0],"split_indices":[5,4,0,5,5,0,0,5,1,0,0,0,0,0,0],"split_type":[0,0,0,0,0,0,0,0,0,0,0,0,0,0,0],"sum_hessian":[1.27E2,1.1E2,1.7E1,9.7E1,1.3E1,1.4E1,3E0,7.6E1,2.1E1,1E1,3E0,7.1E1,5E0,1.6E1,5E0],"tree_param":{"num_deleted":"0","num_feature":"6","num_nodes":"15","size_leaf_vector":"0"}},{"base_weights":[-0E0,-7.306067E-2,1.7394374E-1,-2.7432582E-1,-0E0,1.0515947E0,-0E0,-9.1354406E-1,-0E0,2.6711547E-1,-0E0,-0E0,2.2208107E0,-6.5005285E-1,-0E0,-0E0,-4.899994E0,-0E0,1.0365007E0,6.2105265E-3,-0E0,-1.5862888E0,-0E0,2.2864723E0,-0E0],"categories":[],"categories_nodes":[],"categories_segments":[],"categories_sizes":[],"default_left":[1,1,1,1,1,1,1,1,0,1,0,1,0,1,1,0,0,0,0,1,1,0,0,0,0],"id":42,"left_children":[1,3,5,7,9,11,13,15,-1,17,-1,-1,-1,21,23,-1,-1,-1,-1,-1,-1,-1,-1,-1,-1],"loss_changes":[2.4374099E0,2.3595157E0,3.1516962E1,1.938901E1,1.2434343E0,7.9145584E0,8.631848E0,3.621917E1,0E0,1.6404737E1,0E0,5.178913E-4,0E0,3.270383E1,1.2688707E1,0E0,0E0,0E0,0E0,0E0,0E0,0E0,0E0,0E0,0E0],"parents":[2147483647,0,0,1,1,2,2,3,3,4,4,5,5,6,6,7,7,9,9,11,11,13,13,14,14],"right_children":[2,4,6,8,10,12,14,16,-1,18,-1,-1,-1,22,24,-1,-1,-1,-1,-1,-1,-1,-1,-1,-1],"split_conditions":[7.2864E0,3.5646E0,1.0858E1,1.905E1,4.32875E0,9.8832E0,1.27651005E1,3.3365998E0,-0E0,5.6075E0,-0E0,-0E0,6.662432E-1,7.4069E0,1.375765E1,-0E0,-1.4699982E0,-0E0,3.1095022E-1,1.863158E-3,-0E0,-4.7588667E-1,-0E0,6.859417E-1,-0E0],"split_indices":[4,5,4,1,5,4,4,5,0,4,0,4,0,5,4,0,0,0,0,2147483647,2147483647,0,0,0,0],"split_type":[0,0,0,0,0,0,0,0,0,0,0,0,0,0,0,0,0,0,0,0,0,0,0,0,0],"sum_hessian":[1.27E2,5.7E1,7E1,3.5E1,2.2E1,3E1,4E1,2.6E1,9E0,1.7E1,5E0,2.2E1,8E0,2E1,2E1,2.4E1,2E0,1E0,1.6E1,1.3E1,9E0,1.6E1,4E0,2E0,1.8E1],"tree_param":{"num_deleted":"2","num_feature":"6","num_nodes":"25","size_leaf_vector":"0"}},{"base_weights":[-0E0,-1.084989E-1,1.8689854E-1,-0E0,-2.3464577E-1,-0E0,1.3175342E0,-3.7677485E-1,-0E0,-1.8611712E-2,-0E0,-0E0,2.0751414E0,-0E0,-5.8093095E-1,-0E0,-1.1040423E0,1.7212449E0,-0E0],"categories":[],"categories_nodes":[],"categories_segments":[],"categories_sizes":[],"default_left":[1,1,1,1,1,1,1,1,1,1,1,0,0,1,1,0,0,0,0],"id":43,"left_children":[1,-1,5,-1,-1,9,11,-1,-1,15,17,-1,-1,-1,-1,-1,-1,-1,-1],"loss_changes":[3.1361253E0,1.1644177E0,2.6055628E1,0E0,2.4789574E0,1.19254E-2,2.4997952E1,2.9118223E0,0E0,2.4886843E1,7.1906934E0,0E0,0E0,0E0,0E0,0E0,0E0,0E0,0E0],"parents":[2147483647,0,0,1,1,2,2,4,4,5,5,6,6,7,7,9,9,10,10],"right_children":[2,-1,6,-1,-1,10,12,-1,-1,16,18,-1,-1,-1,-1,-1,-1,-1,-1],"split_conditions":[7.2864E0,-3.254967E-2,2.5E0,-0E0,-7.039373E-2,1.27651005E1,2.53E1,-1.1303246E-1,-0E0,2.885E1,1.375765E1,-0E0,6.2254244E-1,-0E0,-1.7427929E-1,-0E0,-3.312127E-1,5.163735E-1,-0E0],"split_indices":[4,1,0,2147483647,2147483647,4,1,2147483647,2147483647,2,4,0,0,2147483647,2147483647,0,0,0,0],"split_type":[0,0,0,0,0,0,0,0,0,0,0,0,0,0,0,0,0,0,0],"sum_hessian":[1.27E2,5.7E1,7E1,2.4E1,3.3E1,5.4E1,1.6E1,3E1,3E0,3.4E1,2E1,4E0,1.2E1,9E0,2.1E1,1.4E1,2E1,2E0,1.8E1],"tree_param":{"num_deleted":"6","num_feature":"6","num_nodes":"19","size_leaf_vector":"0"}},{"base_weights":[-0E0,-7.619072E-2,1.6022196E-1,-0E0,-2.025104E-1,7.823724E-1,-0E0,-3.4468156E-1,-0E0,-0E0,1.3788508E0,-1.4476806E0,-0E0,-0E0,-5.4902893E-1,2.6456997E0,-0E0,-2.6185727E0,-0E0,2.004593E-1,-0E0],"categories":[],"categories_nodes":[],"categories_segments":[],"categories_sizes":[],"default_left":[1,1,1,1,1,1,1,1,1,0,1,1,1,1,1,0,0,0,0,1,1],"id":44,"left_children":[1,-1,5,-1,-1,9,11,-1,-1,-1,15,17,-1,-1,-1,-1,-1,-1,-1,-1,-1],"loss_changes":[2.141305E0,1.0374947E0,2.1101429E1,0E0,2.244041E0,6.4210663E0,1.1373977E1,2.8439252E0,0E0,0E0,8.657694E0,1.8982227E1,9.815764E-1,0E0,0E0,0E0,0E0,0E0,0E0,0E0,0E0],"parents":[2147483647,0,0,1,1,2,2,4,4,5,5,6,6,7,7,10,10,11,11,12,12],"right_children":[2,-1,6,-1,-1,10,12,-1,-1,-1,16,18,-1,-1,-1,-1,-1,-1,-1,-1,-1],"split_conditions":[7.2864E0,-2.2857215E-2,1.15042E1,-0E0,-6.0753122E-2,9.8832E0,1.21553E1,-1.0340447E-1,-0E0,-0E0,3.125E1,4E0,-0E0,-0E0,-1.6470869E-1,7.9370993E-1,-0E0,-7.855719E-1,-0E0,6.0137793E-2,-0E0],"split_indices":[4,1,4,2147483647,2147483647,4,4,2147483647,2147483647,0,1,0,4,2147483647,2147483647,0,0,0,0,2147483647,2147483647],"split_type":[0,0,0,0,0,0,0,0,0,0,0,0,0,0,0,0,0,0,0,0,0],"sum_hessian":[1.27E2,5.7E1,7E1,2.4E1,3.3E1,3.7E1,3.3E1,3E1,3E0,2.2E1,1.5E1,5E0,2.8E1,9E0,2.1E1,5E0,1E1,4E0,1E0,2.4E1,4E0],"tree_param":{"num_deleted":"8","num_feature":"6","num_nodes":"21","size_leaf_vector":"0"}},{"base_weights":[-0E0,-5.3503044E-2,1.4849086E-1,-0E0,-2.9889753E-1,-0E0,6.7194265E-1,-4.696626E-1,-0E0,-4.2977086E-1,-0E0,-0E0,7.344808E-1,-6.884661E-1,-0E0,-0E0,-2.7342002E0,5.558818E-1,-0E0,8.240859E-1,-0E0],"categories":[],"categories_nodes":[],"categories_segments":[],"categories_sizes":[],"default_left":[1,1,1,1,1,1,1,1,1,1,1,1,1,1,1,0,0,1,1,1,1],"id":45,"left_children":[1,-1,5,-1,-1,9,-1,-1,-1,15,-1,-1,-1,-1,-1,-1,-1,-1,-1,-1,-1],"loss_changes":[1.7172741E0,2.553959E0,1.8957762E1,0E0,3.3316E0,3.2188354E0,3.4560833E0,2.6842237E0,0E0,3.7353268E1,1.3679904E0,0E0,2.1297817E0,0E0,0E0,0E0,0E0,0E0,0E0,0E0,0E0],"parents":[2147483647,0,0,1,1,2,2,4,4,5,5,6,6,7,7,9,9,10,10,12,12],"right_children":[2,-1,6,-1,-1,10,-1,-1,-1,16,-1,-1,-1,-1,-1,-1,-1,-1,-1,-1,-1],"split_conditions":[7.2864E0,-1.6050914E-2,5E-1,-0E0,-8.9669265E-2,1.575815E1,2.015828E-1,-1.408988E-1,-0E0,3.725E1,-0E0,-0E0,2.2034425E-1,-2.0653982E-1,-0E0,-0E0,-8.202601E-1,1.6676454E-1,-0E0,2.4722578E-1,-0E0],"split_indices":[4,3,0,2147483647,2147483647,4,2,2147483647,2147483647,3,3,2147483647,2147483647,2147483647,2147483647,0,0,2147483647,2147483647,2147483647,2147483647],"split_type":[0,0,0,0,0,0,0,0,0,0,0,0,0,0,0,0,0,0,0,0,0],"sum_hessian":[1.27E2,5.7E1,7E1,2.7E1,3E1,2.5E1,4.5E1,2.7E1,3E0,1.7E1,8E0,1E0,4.4E1,1.8E1,9E0,1.2E1,5E0,4E0,4E0,3.8E1,6E0],"tree_param":{"num_deleted":"12","num_feature":"6","num_nodes":"21","size_leaf_vector":"0"}},{"base_weights":[-0E0,-1.4343201E-2,4.8091343E-1,-0E0,-2.7180684E-1,1.4971147E0,-0E0,-0E0,2.156028E0,-7.468659E-1,-0E0,-4.615002E-2,-0E0,2.675762E0,-0E0,-9.4528055E-1,-0E0,1.0807418E0,-2.0271792E-1],"categories":[],"categories_nodes":[],"categories_segments":[],"categories_sizes":[],"default_left":[1,1,1,1,1,0,0,1,1,1,1,1,1,1,1,0,0,0,0],"id":46,"left_children":[1,3,5,7,9,-1,-1,-1,-1,15,17,-1,-1,-1,-1,-1,-1,-1,-1],"loss_changes":[2.4357111E0,6.5087433E0,1.4235166E1,4.382141E1,9.3239765E0,0E0,0E0,3.924646E-2,2.194622E0,8.6507435E0,1.0870421E1,0E0,0E0,0E0,0E0,0E0,0E0,0E0,0E0],"parents":[2147483647,0,0,1,1,2,2,3,3,4,4,7,7,8,8,9,9,10,10],"right_children":[2,4,6,8,10,-1,-1,-1,-1,16,18,-1,-1,-1,-1,-1,-1,-1,-1],"split_conditions":[6.8662E0,2.265E1,3.94E1,2.91125E0,4.0736E0,4.491344E-1,-0E0,-0E0,6.4680845E-1,3.54E1,2.45E1,-1.3845007E-2,-0E0,8.027286E-1,-0E0,-2.8358418E-1,-0E0,3.2422253E-1,-6.0815375E-2],"split_indices":[5,3,1,5,5,0,0,1,1,1,1,2147483647,2147483647,2147483647,2147483647,0,0,0,0],"split_type":[0,0,0,0,0,0,0,0,0,0,0,0,0,0,0,0,0,0,0],"sum_hessian":[1.27E2,1.17E2,1E1,2.9E1,8.8E1,7E0,3E0,2E1,9E0,2.8E1,6E1,1.8E1,2E0,6E0,3E0,2.7E1,1E0,7E0,5.3E1],"tree_param":{"num_deleted":"4","num_feature":"6","num_nodes":"19","size_leaf_vector":"0"}},{"base_weights":[-0E0,-1.4640813E-1,7.8567654E-2,-0E0,-1.1205103E0,-0E0,3.396358E-1,-2.9991853E0,-0E0,8.2162315E-1,-0E0,-0E0,-5.014599E0,1.6024977E0,-0E0,-1.1193309E0,-0E0],"categories":[],"categories_nodes":[],"categories_segments":[],"categories_sizes":[],"default_left":[1,1,1,0,1,0,1,1,0,1,1,0,0,0,0,0,0],"id":47,"left_children":[1,3,5,-1,7,-1,9,11,-1,13,15,-1,-1,-1,-1,-1,-1],"loss_changes":[1.2688828E0,6.1402946E0,9.143641E0,0E0,3.3008205E1,0E0,2.4977734E1,4.6356087E1,0E0,3.8284126E1,6.7996073E0,0E0,0E0,0E0,0E0,0E0,0E0],"parents":[2147483647,0,0,1,1,2,2,4,4,6,6,7,7,9,9,10,10],"right_children":[2,4,6,-1,8,-1,10,12,-1,14,16,-1,-1,-1,-1,-1,-1],"split_conditions":[3.37365E0,2.265E1,6.13885E0,-0E0,2.04E1,-0E0,1.15042E1,6.2949E0,-0E0,4.7265997E0,1.21553E1,-0E0,-1.5043797E0,4.8074934E-1,-0E0,-3.3579928E-1,-0E0],"split_indices":[5,3,4,0,1,0,4,4,0,5,4,0,0,0,0,0,0],"split_type":[0,0,0,0,0,0,0,0,0,0,0,0,0,0,0,0,0],"sum_hessian":[1.27E2,3.1E1,9.6E1,2.6E1,5E0,1.2E1,8.4E1,4E0,1E0,5.1E1,3.3E1,1E0,3E0,2.8E1,2.3E1,5E0,2.8E1],"tree_param":{"num_deleted":"0","num_feature":"6","num_nodes":"17","size_leaf_vector":"0"}},{"base_weights":[-0E0,-1.3832304E-1,5.1822446E-2,-0E0,-2.8736734E-1,-0E0,4.0298584E-1,-2.8982108E-2,2.2113664E-1,-0E0,-6.982113E-1,-4.1332206E-1,-0E0,5.551483E-1,-0E0,-1.9101053E-1,-0E0,-8.9838535E-1,-0E0,1.7564865E0,-0E0,-0E0,9.651175E-1],"categories":[],"categories_nodes":[],"categories_segments":[],"categories_sizes":[],"default_left":[1,1,1,1,1,1,1,1,1,0,1,0,1,1,0,1,1,0,0,0,0,0,0],"id":48,"left_children":[1,3,5,-1,9,11,13,-1,-1,-1,17,-1,19,21,-1,-1,-1,-1,-1,-1,-1,-1,-1],"loss_changes":[1.2879041E0,1.4139013E0,7.188113E0,3.3229166E-1,1.1345509E1,1.6104777E0,6.006531E0,6.5431476E-1,0E0,0E0,6.663929E0,0E0,1.982914E1,6.574519E0,0E0,0E0,0E0,0E0,0E0,0E0,0E0,0E0,0E0],"parents":[2147483647,0,0,1,1,2,2,3,3,4,4,5,5,6,6,7,7,10,10,12,12,13,13],"right_children":[2,4,6,-1,10,12,14,-1,-1,-1,18,-1,20,22,-1,-1,-1,-1,-1,-1,-1,-1,-1],"split_conditions":[7.2864E0,2.265E1,5E-1,-0E0,3.3383E0,1.4092199E1,7.5446E0,-8.694633E-3,6.6341E-2,-0E0,4.04E1,-1.2399662E-1,3.935E1,9.8832E0,-0E0,-5.7303164E-2,-0E0,-2.695156E-1,-0E0,5.26946E-1,-0E0,-0E0,2.8953525E-1],"split_indices":[4,3,0,5,5,4,5,2147483647,2147483647,0,3,0,3,4,0,2147483647,2147483647,0,0,0,0,0,0],"split_type":[0,0,0,0,0,0,0,0,0,0,0,0,0,0,0,0,0,0,0,0,0,0,0],"sum_hessian":[1.27E2,5.7E1,7E1,2.7E1,3E1,2.5E1,4.5E1,2.1E1,6E0,2E0,2.8E1,9E0,1.6E1,4.3E1,2E0,1.8E1,3E0,2.5E1,3E0,6E0,1E1,2.2E1,2.1E1],"tree_param":{"num_deleted":"4","num_feature":"6","num_nodes":"23","size_leaf_vector":"0"}},{"base_weights":[-0E0,-3.7442036E-2,-0E0,-0E0,-3.5226014E-1,3.0267647E-1,-0E0,-0E0,7.1338665E-1,-6.8673736E-1,-0E0,-0E0,2.0294275E0,-1.0454712E0,-0E0,-0E0,-3.704715E-1,5.989176E0,-0E0],"categories":[],"categories_nodes":[],"categories_segments":[],"categories_sizes":[],"default_left":[1,1,1,1,1,1,0,1,1,1,0,1,1,0,0,1,1,0,0],"id":49,"left_children":[1,3,5,-1,9,11,-1,-1,-1,13,-1,-1,17,-1,-1,-1,-1,-1,-1],"loss_changes":[1.1695695E-1,6.6367483E0,3.7036486E0,6.3244E0,1.797134E1,3.512253E1,0E0,0E0,0E0,2.8206255E1,0E0,1.705607E0,4.8234E1,0E0,0E0,0E0,0E0,0E0,0E0],"parents":[2147483647,0,0,1,1,2,2,3,3,4,4,5,5,9,9,11,11,12,12],"right_children":[2,4,6,-1,10,12,-1,-1,-1,14,-1,-1,18,-1,-1,-1,-1,-1,-1],"split_conditions":[3.24E1,2.265E1,1.67033E1,-0E0,5E0,1.2644501E1,-0E0,-0E0,2.14016E-1,1.4092199E1,-0E0,-0E0,1.503325E1,-3.1364137E-1,-0E0,-0E0,-1.1114146E-1,1.7967528E0,-0E0],"split_indices":[2,3,4,2,0,4,0,2147483647,2147483647,4,0,4,4,0,0,2147483647,2147483647,0,0],"split_type":[0,0,0,0,0,0,0,0,0,0,0,0,0,0,0,0,0,0,0],"sum_hessian":[1.27E2,8.3E1,4.4E1,2.9E1,5.4E1,4E1,4E0,1.7E1,1.2E1,5.2E1,2E0,3.1E1,9E0,4.8E1,4E0,1.9E1,1.2E1,2E0,7E0],"tree_param":{"num_deleted":"4","num_feature":"6","num_nodes":"19","size_leaf_vector":"0"}},{"base_weights":[-0E0],"categories":[],"categories_nodes":[],"categories_segments":[],"categories_sizes":[],"default_left":[0],"id":50,"left_children":[-1],"loss_changes":[0E0],"parents":[2147483647],"right_children":[-1],"split_conditions":[-0E0],"split_indices":[0],"split_type":[0],"sum_hessian":[1.27E2],"tree_param":{"num_deleted":"0","num_feature":"6","num_nodes":"1","size_leaf_vector":"0"}},{"base_weights":[-0E0,-0E0,5.5062905E-2,-2.9998305E-1,-0E0,6.555774E-1,-0E0,8.400306E-1,-0E0,-2.4987373E-1,5.8603942E-2,-0E0,1.0687449E0,-3.0883126E0,-0E0,-0E0,5.200955E-1],"categories":[],"categories_nodes":[],"categories_segments":[],"categories_sizes":[],"default_left":[1,1,1,1,1,1,1,1,1,1,1,1,1,0,0,1,1],"id":51,"left_children":[1,-1,5,-1,-1,-1,9,-1,-1,13,-1,-1,-1,-1,-1,-1,-1],"loss_changes":[3.1358305E-1,1.7482404E0,1.1474078E1,0E0,0E0,6.154998E0,3.4752817E0,3.1050472E0,0E0,4.836354E1,3.5549943E0,0E0,0E0,0E0,0E0,0E0,0E0],"parents":[2147483647,0,0,1,1,2,2,5,5,6,6,7,7,9,9,10,10],"right_children":[2,-1,6,-1,-1,-1,10,-1,-1,14,-1,-1,-1,-1,-1,-1,-1],"split_conditions":[3.16585E0,-0E0,3.82265E0,-8.999492E-2,-0E0,1.9667323E-1,2.5E0,2.5200918E-1,-0E0,4.2191E0,1.7581183E-2,-0E0,3.206235E-1,-9.264938E-1,-0E0,-0E0,1.5602866E-1],"split_indices":[5,3,5,2147483647,2147483647,2,0,2147483647,2147483647,5,2,2147483647,2147483647,0,0,2147483647,2147483647],"split_type":[0,0,0,0,0,0,0,0,0,0,0,0,0,0,0,0,0],"sum_hessian":[1.27E2,2.4E1,1.03E2,1.9E1,5E0,2.7E1,7.6E1,2.5E1,2E0,5.4E1,2.2E1,7E0,1.8E1,5E0,4.9E1,9E0,1.3E1],"tree_param":{"num_deleted":"8","num_feature":"6","num_nodes":"17","size_leaf_vector":"0"}},{"base_weights":[-0E0,-0E0,4.477171E-2,-2.9998305E-1,-0E0,4.6196926E-1,-0E0,6.466633E-1,-0E0,-1.02173015E-1,-0E0,-0E0,8.766326E-1,-2.366775E-1,-0E0,6.883899E-1,-0E0],"categories":[],"categories_nodes":[],"categories_segments":[],"categories_sizes":[],"default_left":[1,1,1,1,1,1,1,1,1,1,1,1,1,1,1,1,1],"id":52,"left_children":[-1,-1,-1,-1,-1,-1,-1,-1,-1,-1,-1,-1,-1,-1,-1,-1,-1],"loss_changes":[2.0732021E-1,1.7482404E0,5.646048E0,0E0,0E0,4.7795644E0,6.93454E-1,3.5280027E0,0E0,2.5794115E0,3.519553E0,0E0,0E0,0E0,0E0,0E0,0E0],"parents":[2147483647,0,0,1,1,2,2,5,5,6,6,7,7,9,9,10,10],"right_children":[-1,-1,-1,-1,-1,-1,-1,-1,-1,-1,-1,-1,-1,-1,-1,-1,-1],"split_conditions":[-0E0,-0E0,1.3431513E-2,-8.999492E-2,-0E0,1.3859078E-1,-0E0,1.93999E-1,-0E0,-3.0651907E-2,-0E0,-0E0,2.629898E-1,-7.100325E-2,-0E0,2.0651698E-1,-0E0],"split_indices":[5,2147483647,2147483647,2147483647,2147483647,2147483647,2147483647,2147483647,2147483647,2147483647,2147483647,2147483647,2147483647,2147483647,2147483647,2147483647,2147483647],"split_type":[0,0,0,0,0,0,0,0,0,0,0,0,0,0,0,0,0],"sum_hessian":[1.27E2,2.4E1,1.03E2,1.9E1,5E0,2.7E1,7.6E1,2.5E1,2E0,6.6E1,1E1,7E0,1.8E1,5.8E1,8E0,7E0,3E0],"tree_param":{"num_deleted":"16","num_feature":"6","num_nodes":"17","size_leaf_vector":"0"}},{"base_weights":[-0E0,-0E0,4.477171E-2,-2.9998305E-1,-0E0,2.905875E-1,-0E0,6.8236536E-1,-0E0,-7.752476E-1,-0E0,-0E0,8.207552E-1,-3.480509E-1,1.0083277E0,1.2966958E-1,-0E0],"categories":[],"categories_nodes":[],"categories_segments":[],"categories_sizes":[],"default_left":[1,1,1,1,1,1,1,1,1,1,1,1,1,0,0,1,1],"id":53,"left_children":[1,-1,5,-1,-1,7,-1,-1,13,-1,-1,-1,-1,-1,-1,-1,-1],"loss_changes":[2.0732021E-1,1.7482404E0,5.739621E0,0E0,0E0,1.2411198E1,3.261727E0,3.4860153E0,6.928046E0,0E0,4.107219E-1,0E0,0E0,0E0,0E0,0E0,0E0],"parents":[2147483647,0,0,1,1,2,2,5,5,6,6,7,7,8,8,10,10],"right_children":[2,-1,6,-1,-1,8,-1,-1,14,-1,-1,-1,-1,-1,-1,-1,-1],"split_conditions":[3.16585E0,-0E0,1.15042E1,-8.999492E-2,-0E0,4.32875E0,-0E0,2.0470962E-1,7.172E0,-2.3257428E-1,-0E0,-0E0,2.4622656E-1,-1.04415275E-1,3.0249834E-1,3.8900875E-2,-0E0],"split_indices":[5,1,4,2147483647,2147483647,5,4,5,5,2147483647,2147483647,2147483647,2147483647,0,0,2147483647,2147483647],"split_type":[0,0,0,0,0,0,0,0,0,0,0,0,0,0,0,0,0],"sum_hessian":[1.27E2,2.4E1,1.03E2,1.9E1,5E0,7E1,3.3E1,3.9E1,3.1E1,5E0,2.8E1,7E0,3.2E1,2.8E1,3E0,2.4E1,4E0],"tree_param":{"num_deleted":"8","num_feature":"6","num_nodes":"17","size_leaf_vector":"0"}},{"base_weights":[-0E0,-4.309644E-2,1.734868E-2,-9.393033E-2,-0E0,5.1893824E-1,-0E0,-1.1002033E-1,-0E0,-0E0,6.150051E-1,-2.236975E-1,-0E0,-0E0,-1.858035E-1,-0E0,-1.3018227E0,-0E0,5.582428E-1],"categories":[],"categories_nodes":[],"categories_segments":[],"categories_sizes":[],"default_left":[1,1,1,1,1,1,1,1,1,1,1,1,1,1,1,0,0,1,1],"id":54,"left_children":[1,-1,5,-1,-1,-1,11,-1,-1,-1,-1,15,-1,-1,-1,-1,-1,-1,-1],"loss_changes":[1.2785643E-1,3.735456E-1,8.172723E0,4.5456946E-2,0E0,2.9363241E0,1.0221832E0,2.14064E-1,0E0,0E0,0E0,1.6649042E1,3.5610805E0,0E0,0E0,0E0,0E0,0E0,0E0],"parents":[2147483647,0,0,1,1,2,2,3,3,5,5,6,6,7,7,11,11,12,12],"right_children":[2,-1,6,-1,-1,-1,12,-1,-1,-1,-1,16,-1,-1,-1,-1,-1,-1,-1],"split_conditions":[7.2864E0,-1.2928933E-2,1.0858E1,-2.81791E-2,-0E0,1.5568148E-1,1.27651005E1,-3.30061E-2,-0E0,-0E0,1.8450153E-1,3.385E1,-0E0,-0E0,-5.5741053E-2,-0E0,-3.9054683E-1,-0E0,1.6747284E-1],"split_indices":[4,1,4,2147483647,2147483647,1,4,2147483647,2147483647,2147483647,2147483647,1,1,2147483647,2147483647,0,0,2147483647,2147483647],"split_type":[0,0,0,0,0,0,0,0,0,0,0,0,0,0,0,0,0,0,0],"sum_hessian":[1.27E2,5.7E1,7E1,5.4E1,3E0,3E1,4E1,4.3E1,1.1E1,1E0,2.9E1,2E1,2E1,2.2E1,2.1E1,1E1,1E1,9E0,1.1E1],"tree_param":{"num_deleted":"10","num_feature":"6","num_nodes":"19","size_leaf_vector":"0"}},{"base_weights":[-0E0,-4.24354E-2,5.475164E-4,-2.778891E-1,-0E0,4.0184742E-1,-0E0,-0E0,-1.9719707E0,6.709927E-1,-0E0,-4.2982808E-1,-0E0,-0E0,1.0103298E0,-1.2469887E0,-0E0,7.224716E-1,-0E0],"categories":[],"categories_nodes":[],"categories_segments":[],"categories_sizes":[],"default_left":[1,1,1,1,0,1,1,0,0,1,1,1,1,1,1,0,0,1,1],"id":55,"left_children":[1,3,5,7,-1,-1,11,-1,-1,-1,-1,15,-1,-1,-1,-1,-1,-1,-1],"loss_changes":[5.6621645E-2,2.2930584E0,3.2985647E0,1.4865826E1,0E0,4.997855E0,1.1874185E0,0E0,0E0,1.3264036E0,0E0,7.251599E0,3.8766816E0,0E0,0E0,0E0,0E0,0E0,0E0],"parents":[2147483647,0,0,1,1,2,2,3,3,5,5,6,6,9,9,11,11,12,12],"right_children":[2,4,6,8,-1,-1,12,-1,-1,-1,-1,16,-1,-1,-1,-1,-1,-1,-1],"split_conditions":[3.37365E0,2.04E1,3.82265E0,2.265E1,-0E0,1.2055423E-1,4.0736E0,-0E0,-5.9159124E-1,2.012978E-1,-0E0,3.54E1,-0E0,-0E0,3.0309898E-1,-3.740966E-1,-0E0,2.1674149E-1,-0E0],"split_indices":[5,1,5,3,0,1,5,0,0,2147483647,2147483647,1,1,2147483647,2147483647,0,0,2147483647,2147483647],"split_type":[0,0,0,0,0,0,0,0,0,0,0,0,0,0,0,0,0,0,0],"sum_hessian":[1.27E2,3.1E1,9.6E1,3E1,1E0,2E1,7.6E1,2.6E1,4E0,1.8E1,2E0,6E0,7E1,9E0,9E0,5E0,1E0,7E0,6.3E1],"tree_param":{"num_deleted":"6","num_feature":"6","num_nodes":"19","size_leaf_vector":"0"}},{"base_weights":[-0E0,-2.7903954E-2,3.0490024E-2,-7.8613654E-2,-0E0,4.078458E-1,-0E0,-0E0,4.8667595E-1,-4.904214E-1,-0E0,-1.4197596E0,-0E0,3.8599032E-1,-0E0],"categories":[],"categories_nodes":[],"categories_segments":[],"categories_sizes":[],"default_left":[1,1,1,1,1,1,1,1,1,1,1,0,0,1,1],"id":56,"left_children":[1,-1,5,-1,-1,-1,9,-1,-1,11,-1,-1,-1,-1,-1],"loss_changes":[1.10186435E-1,2.9165074E-1,6.1600823E0,0E0,0E0,2.4023285E0,1.305286E0,0E0,0E0,7.6184716E0,3.639356E0,0E0,0E0,0E0,0E0],"parents":[2147483647,0,0,1,1,2,2,5,5,6,6,9,9,10,10],"right_children":[2,-1,6,-1,-1,-1,10,-1,-1,12,-1,-1,-1,-1,-1],"split_conditions":[7.2864E0,-8.371186E-3,1.15042E1,-2.3584098E-2,-0E0,1.2235374E-1,1.21553E1,-0E0,1.4600278E-1,4E0,-0E0,-4.259279E-1,-0E0,1.157971E-1,-0E0],"split_indices":[4,2,4,2147483647,2147483647,2,4,2147483647,2147483647,0,3,0,0,2147483647,2147483647],"split_type":[0,0,0,0,0,0,0,0,0,0,0,0,0,0,0],"sum_hessian":[1.27E2,5.7E1,7E1,5.4E1,3E0,3.7E1,3.3E1,1E0,3.6E1,5E0,2.8E1,4E0,1E0,2.4E1,4E0],"tree_param":{"num_deleted":"6","num_feature":"6","num_nodes":"15","size_leaf_vector":"0"}},{"base_weights":[-0E0,-2.665687E-2,1.2742525E-1,-2.7884033E-1,-0E0,9.516014E-1,-0E0,-0E0,-1.3775115E0,4.917872E-1,-0E0,-8.750501E-2,7.963156E-1,-0E0,-3.0613227E0],"categories":[],"categories_nodes":[],"categories_segments":[],"categories_sizes":[],"default_left":[1,1,1,1,1,0,0,1,1,1,1,0,0,0,0],"id":57,"left_children":[1,3,5,7,-1,-1,-1,11,13,-1,-1,-1,-1,-1,-1],"loss_changes":[2.5274903E-1,8.424725E0,6.556257E0,4.3535767E1,1.0707117E0,0E0,0E0,1.0925362E1,1.3939252E2,0E0,0E0,0E0,0E0,0E0,0E0],"parents":[2147483647,0,0,1,1,2,2,3,3,4,4,7,7,8,8],"right_children":[2,4,6,8,-1,-1,-1,12,14,-1,-1,-1,-1,-1,-1],"split_conditions":[6.8662E0,1.575815E1,4.25E1,3.635E1,-0E0,2.8548044E-1,-0E0,9.8832E0,4.883E0,1.4753616E-1,-0E0,-2.6251504E-2,2.3889469E-1,-0E0,-9.1839683E-1],"split_indices":[5,4,2,3,3,0,0,4,5,2147483647,2147483647,0,0,0,0],"split_type":[0,0,0,0,0,0,0,0,0,0,0,0,0,0,0],"sum_hessian":[1.27E2,1.17E2,1E1,1.09E2,8E0,7E0,3E0,8.2E1,2.7E1,4E0,4E0,6.6E1,1.6E1,7E0,2E1],"tree_param":{"num_deleted":"2","num_feature":"6","num_nodes":"15","size_leaf_vector":"0"}},{"base_weights":[-0E0,-0E0,2.1126994E-1,-0E0,-1.9297966E-1,1.1560966E0,-0E0,-0E0,1.788846E0,-4.928699E-1,-0E0,-0E0,3.6242597E0,-1.9223128E-1,-0E0,-1.5945077E-2,-0E0,-0E0,2.1055312E0,-8.147758E-1,-0E0,-1.2862828E0,-0E0,6.46979E-1,-0E0],"categories":[],"categories_nodes":[],"categories_segments":[],"categories_sizes":[],"default_left":[1,1,1,1,1,1,1,1,1,1,0,0,0,1,1,1,1,1,1,0,0,0,0,1,1],"id":58,"left_children":[1,3,5,7,9,11,13,-1,-1,19,-1,-1,-1,21,-1,-1,-1,-1,-1,-1,-1,-1,-1,-1,-1],"loss_changes":[1.9830027E0,2.138651E0,1.4626536E1,2.056649E1,1.132574E1,8.0947174E1,8.287451E-1,4.685004E-3,3.4932117E0,2.133984E1,0E0,0E0,0E0,2.4695734E1,3.5274253E0,0E0,0E0,0E0,0E0,0E0,0E0,0E0,0E0,0E0,0E0],"parents":[2147483647,0,0,1,1,2,2,3,3,4,4,5,5,6,6,7,7,8,8,9,9,13,13,14,14],"right_children":[2,4,6,8,10,12,14,-1,-1,20,-1,-1,-1,22,-1,-1,-1,-1,-1,-1,-1,-1,-1,-1,-1],"split_conditions":[2.995E1,1.88E1,5.3732E0,2.91125E0,5E0,7.12E0,6.8662E0,-0E0,5.366538E-1,1.4221149E1,-0E0,-0E0,1.087278E0,1.5914301E1,-0E0,-4.7835233E-3,-0E0,-0E0,6.316594E-1,-2.4443276E-1,-0E0,-3.8588485E-1,-0E0,1.940937E-1,-0E0],"split_indices":[1,1,5,5,0,4,5,1,4,4,0,0,0,4,5,2147483647,2147483647,2147483647,2147483647,0,0,0,0,2147483647,2147483647],"split_type":[0,0,0,0,0,0,0,0,0,0,0,0,0,0,0,0,0,0,0,0,0,0,0,0,0],"sum_hessian":[1.27E2,8.3E1,4.4E1,2.6E1,5.7E1,1.2E1,3.2E1,2E1,6E0,5.5E1,2E0,5E0,7E0,2.2E1,1E1,1.8E1,2E0,1E0,5E0,5.2E1,3E0,1.5E1,7E0,8E0,2E0],"tree_param":{"num_deleted":"6","num_feature":"6","num_nodes":"25","size_leaf_vector":"0"}},{"base_weights":[-0E0,-1.8286416E-2,1.991054E-1,-3.0483E-1,-0E0,2.8773075E-1,-0E0,-0E0,1.1087632E0,3.6638948E-1,-3.499262E-1],"categories":[],"categories_nodes":[],"categories_segments":[],"categories_sizes":[],"default_left":[1,1,1,1,1,1,0,1,0,0,0],"id":59,"left_children":[1,-1,5,-1,-1,7,-1,9,-1,-1,-1],"loss_changes":[4.1083245E0,1.8899441E0,3.3034215E0,0E0,0E0,1.7708584E1,0E0,9.006696E0,0E0,0E0,0E0],"parents":[2147483647,0,0,1,1,2,2,5,5,7,7],"right_children":[2,-1,6,-1,-1,8,-1,10,-1,-1,-1],"split_conditions":[3.16585E0,-5.485925E-3,4.49E1,-9.144901E-2,-0E0,6.0105E0,-0E0,2.45E1,3.3262897E-1,1.0991685E-1,-1.0497787E-1],"split_indices":[5,3,3,2147483647,2147483647,5,0,1,0,0,0],"split_type":[0,0,0,0,0,0,0,0,0,0,0],"sum_hessian":[1.27E2,2.4E1,1.03E2,2E1,4E0,8.9E1,1.4E1,6.9E1,2E1,3.8E1,3.1E1],"tree_param":{"num_deleted":"2","num_feature":"6","num_nodes":"11","size_leaf_vector":"0"}},{"base_weights":[-0E0,-8.633024E-3,1.3454431E-1,-3.7669706E-1,-0E0,-0E0,8.778781E-1,-5.888631E-1,-0E0,-1.04915366E-1,-0E0,-0E0,1.0975913E0,-0E0,-1.0146644E0,-0E0,-8.596334E-1,-0E0,4.6079496E-1,-0E0,1.2489771E0],"categories":[],"categories_nodes":[],"categories_segments":[],"categories_sizes":[],"default_left":[1,1,1,1,0,1,1,1,0,1,1,0,1,0,0,0,0,1,1,1,1],"id":60,"left_children":[1,3,5,7,-1,9,11,13,-1,15,-1,-1,-1,-1,-1,-1,-1,-1,-1,-1,-1],"loss_changes":[1.7478821E0,3.4638782E0,2.0933033E1,4.65735E0,0E0,5.22041E-1,9.158316E0,6.7297506E0,0E0,2.56575E1,3.487996E0,0E0,6.267992E0,0E0,0E0,0E0,0E0,0E0,0E0,0E0,0E0],"parents":[2147483647,0,0,1,1,2,2,3,3,5,5,6,6,7,7,9,9,10,10,12,12],"right_children":[2,4,6,8,-1,10,12,14,-1,16,-1,-1,-1,-1,-1,-1,-1,-1,-1,-1,-1],"split_conditions":[3.37365E0,6.5126E0,2.5E0,1.92E1,-0E0,1.27651005E1,6.0520496E0,3E0,-0E0,3.6755E0,-0E0,-0E0,3.292774E-1,-0E0,-3.0439934E-1,-0E0,-2.5789002E-1,-0E0,1.3823849E-1,-0E0,3.7469313E-1],"split_indices":[5,4,0,1,0,4,4,0,0,5,5,0,5,0,0,0,0,2147483647,2147483647,2147483647,2147483647],"split_type":[0,0,0,0,0,0,0,0,0,0,0,0,0,0,0,0,0,0,0,0,0],"sum_hessian":[1.27E2,3.1E1,9.6E1,2.4E1,7E0,6.7E1,2.9E1,2.3E1,1E0,4.7E1,2E1,3E0,2.6E1,9E0,1.4E1,1.2E1,3.5E1,4E0,1.6E1,2E0,2.4E1],"tree_param":{"num_deleted":"4","num_feature":"6","num_nodes":"21","size_leaf_vector":"0"}},{"base_weights":[-0E0,-0E0,1.8191491E-1,-2.0837517E-2,-0E0,4.2059827E-1,-0E0,-7.091113E-1,-0E0,5.5823103E-2,-0E0,-0E0,7.4810374E-1,-0E0,-2.7805655E0,-0E0,5.9597516E-1,-0E0,1.067111E0],"categories":[],"categories_nodes":[],"categories_segments":[],"categories_sizes":[],"default_left":[1,1,1,1,1,1,0,1,0,1,0,0,1,1,1,0,0,0,0],"id":61,"left_children":[1,3,5,7,9,11,-1,-1,-1,15,-1,-1,17,-1,-1,-1,-1,-1,-1],"loss_changes":[2.330646E0,1.5382519E-2,9.420498E0,1.3273182E1,6.0539056E-2,1.9269135E1,0E0,5.476572E0,0E0,6.484511E0,0E0,0E0,1.843127E1,0E0,0E0,0E0,0E0,0E0,0E0],"parents":[2147483647,0,0,1,1,2,2,3,3,4,4,5,5,7,7,9,9,12,12],"right_children":[2,4,6,8,10,12,-1,-1,-1,16,-1,-1,18,-1,-1,-1,-1,-1,-1],"split_conditions":[7.2864E0,3.5646E0,1.67033E1,1.905E1,4.3597E0,4.2191E0,-0E0,-2.1273339E-1,-0E0,5.6075E0,-0E0,-0E0,9.5425E0,-0E0,-8.341697E-1,-0E0,1.7879255E-1,-0E0,3.2013333E-1],"split_indices":[4,5,4,1,5,5,0,5,0,4,0,0,4,2147483647,2147483647,0,0,0,0],"split_type":[0,0,0,0,0,0,0,0,0,0,0,0,0,0,0,0,0,0,0],"sum_hessian":[1.27E2,5.7E1,7E1,3.5E1,2.2E1,6.6E1,4E0,2.6E1,9E0,1.9E1,3E0,1.1E1,5.5E1,2.4E1,2E0,1E0,1.8E1,1.2E1,4.3E1],"tree_param":{"num_deleted":"2","num_feature":"6","num_nodes":"19","size_leaf_vector":"0"}},{"base_weights":[-0E0],"categories":[],"categories_nodes":[],"categories_segments":[],"categories_sizes":[],"default_left":[0],"id":62,"left_children":[-1],"loss_changes":[0E0],"parents":[2147483647],"right_children":[-1],"split_conditions":[-0E0],"split_indices":[0],"split_type":[0],"sum_hessian":[1.27E2],"tree_param":{"num_deleted":"0","num_feature":"6","num_nodes":"1","size_leaf_vector":"0"}},{"base_weights":[-0E0],"categories":[],"categories_nodes":[],"categories_segments":[],"categories_sizes":[],"default_left":[0],"id":63,"left_children":[-1],"loss_changes":[0E0],"parents":[2147483647],"right_children":[-1],"split_conditions":[-0E0],"split_indices":[0],"split_type":[0],"sum_hessian":[1.27E2],"tree_param":{"num_deleted":"0","num_feature":"6","num_nodes":"1","size_leaf_vector":"0"}},{"base_weights":[-0E0],"categories":[],"categories_nodes":[],"categories_segments":[],"categories_sizes":[],"default_left":[0],"id":64,"left_children":[-1],"loss_changes":[0E0],"parents":[2147483647],"right_children":[-1],"split_conditions":[-0E0],"split_indices":[0],"split_type":[0],"sum_hessian":[1.27E2],"tree_param":{"num_deleted":"0","num_feature":"6","num_nodes":"1","size_leaf_vector":"0"}},{"base_weights":[-0E0],"categories":[],"categories_nodes":[],"categories_segments":[],"categories_sizes":[],"default_left":[0],"id":65,"left_children":[-1],"loss_changes":[0E0],"parents":[2147483647],"right_children":[-1],"split_conditions":[-0E0],"split_indices":[0],"split_type":[0],"sum_hessian":[1.27E2],"tree_param":{"num_deleted":"0","num_feature":"6","num_nodes":"1","size_leaf_vector":"0"}},{"base_weights":[-0E0],"categories":[],"categories_nodes":[],"categories_segments":[],"categories_sizes":[],"default_left":[0],"id":66,"left_children":[-1],"loss_changes":[0E0],"parents":[2147483647],"right_children":[-1],"split_conditions":[-0E0],"split_indices":[0],"split_type":[0],"sum_hessian":[1.27E2],"tree_param":{"num_deleted":"0","num_feature":"6","num_nodes":"1","size_leaf_vector":"0"}},{"base_weights":[-0E0],"categories":[],"categories_nodes":[],"categories_segments":[],"categories_sizes":[],"default_left":[0],"id":67,"left_children":[-1],"loss_changes":[0E0],"parents":[2147483647],"right_children":[-1],"split_conditions":[-0E0],"split_indices":[0],"split_type":[0],"sum_hessian":[1.27E2],"tree_param":{"num_deleted":"0","num_feature":"6","num_nodes":"1","size_leaf_vector":"0"}},{"base_weights":[-0E0],"categories":[],"categories_nodes":[],"categories_segments":[],"categories_sizes":[],"default_left":[0],"id":68,"left_children":[-1],"loss_changes":[0E0],"parents":[2147483647],"right_children":[-1],"split_conditions":[-0E0],"split_indices":[0],"split_type":[0],"sum_hessian":[1.27E2],"tree_param":{"num_deleted":"0","num_feature":"6","num_nodes":"1","size_leaf_vector":"0"}},{"base_weights":[-0E0],"categories":[],"categories_nodes":[],"categories_segments":[],"categories_sizes":[],"default_left":[0],"id":69,"left_children":[-1],"loss_changes":[0E0],"parents":[2147483647],"right_children":[-1],"split_conditions":[-0E0],"split_indices":[0],"split_type":[0],"sum_hessian":[1.27E2],"tree_param":{"num_deleted":"0","num_feature":"6","num_nodes":"1","size_leaf_vector":"0"}},{"base_weights":[-0E0],"categories":[],"categories_nodes":[],"categories_segments":[],"categories_sizes":[],"default_left":[0],"id":70,"left_children":[-1],"loss_changes":[0E0],"parents":[2147483647],"right_children":[-1],"split_conditions":[-0E0],"split_indices":[0],"split_type":[0],"sum_hessian":[1.27E2],"tree_param":{"num_deleted":"0","num_feature":"6","num_nodes":"1","size_leaf_vector":"0"}},{"base_weights":[-0E0],"categories":[],"categories_nodes":[],"categories_segments":[],"categories_sizes":[],"default_left":[0],"id":71,"left_children":[-1],"loss_changes":[0E0],"parents":[2147483647],"right_children":[-1],"split_conditions":[-0E0],"split_indices":[0],"split_type":[0],"sum_hessian":[1.27E2],"tree_param":{"num_deleted":"0","num_feature":"6","num_nodes":"1","size_leaf_vector":"0"}},{"base_weights":[-0E0],"categories":[],"categories_nodes":[],"categories_segments":[],"categories_sizes":[],"default_left":[0],"id":72,"left_children":[-1],"loss_changes":[0E0],"parents":[2147483647],"right_children":[-1],"split_conditions":[-0E0],"split_indices":[0],"split_type":[0],"sum_hessian":[1.27E2],"tree_param":{"num_deleted":"0","num_feature":"6","num_nodes":"1","size_leaf_vector":"0"}},{"base_weights":[-0E0],"categories":[],"categories_nodes":[],"categories_segments":[],"categories_sizes":[],"default_left":[0],"id":73,"left_children":[-1],"loss_changes":[0E0],"parents":[2147483647],"right_children":[-1],"split_conditions":[-0E0],"split_indices":[0],"split_type":[0],"sum_hessian":[1.27E2],"tree_param":{"num_deleted":"0","num_feature":"6","num_nodes":"1","size_leaf_vector":"0"}},{"base_weights":[-0E0],"categories":[],"categories_nodes":[],"categories_segments":[],"categories_sizes":[],"default_left":[0],"id":74,"left_children":[-1],"loss_changes":[0E0],"parents":[2147483647],"right_children":[-1],"split_conditions":[-0E0],"split_indices":[0],"split_type":[0],"sum_hessian":[1.27E2],"tree_param":{"num_deleted":"0","num_feature":"6","num_nodes":"1","size_leaf_vector":"0"}},{"base_weights":[-0E0],"categories":[],"categories_nodes":[],"categories_segments":[],"categories_sizes":[],"default_left":[0],"id":75,"left_children":[-1],"loss_changes":[0E0],"parents":[2147483647],"right_children":[-1],"split_conditions":[-0E0],"split_indices":[0],"split_type":[0],"sum_hessian":[1.27E2],"tree_param":{"num_deleted":"0","num_feature":"6","num_nodes":"1","size_leaf_vector":"0"}},{"base_weights":[-0E0],"categories":[],"categories_nodes":[],"categories_segments":[],"categories_sizes":[],"default_left":[0],"id":76,"left_children":[-1],"loss_changes":[0E0],"parents":[2147483647],"right_children":[-1],"split_conditions":[-0E0],"split_indices":[0],"split_type":[0],"sum_hessian":[1.27E2],"tree_param":{"num_deleted":"0","num_feature":"6","num_nodes":"1","size_leaf_vector":"0"}},{"base_weights":[-0E0],"categories":[],"categories_nodes":[],"categories_segments":[],"categories_sizes":[],"default_left":[0],"id":77,"left_children":[-1],"loss_changes":[0E0],"parents":[2147483647],"right_children":[-1],"split_conditions":[-0E0],"split_indices":[0],"split_type":[0],"sum_hessian":[1.27E2],"tree_param":{"num_deleted":"0","num_feature":"6","num_nodes":"1","size_leaf_vector":"0"}},{"base_weights":[-0E0],"categories":[],"categories_nodes":[],"categories_segments":[],"categories_sizes":[],"default_left":[0],"id":78,"left_children":[-1],"loss_changes":[0E0],"parents":[2147483647],"right_children":[-1],"split_conditions":[-0E0],"split_indices":[0],"split_type":[0],"sum_hessian":[1.27E2],"tree_param":{"num_deleted":"0","num_feature":"6","num_nodes":"1","size_leaf_vector":"0"}},{"base_weights":[-0E0],"categories":[],"categories_nodes":[],"categories_segments":[],"categories_sizes":[],"default_left":[0],"id":79,"left_children":[-1],"loss_changes":[0E0],"parents":[2147483647],"right_children":[-1],"split_conditions":[-0E0],"split_indices":[0],"split_type":[0],"sum_hessian":[1.27E2],"tree_param":{"num_deleted":"0","num_feature":"6","num_nodes":"1","size_leaf_vector":"0"}},{"base_weights":[-0E0],"categories":[],"categories_nodes":[],"categories_segments":[],"categories_sizes":[],"default_left":[0],"id":80,"left_children":[-1],"loss_changes":[0E0],"parents":[2147483647],"right_children":[-1],"split_conditions":[-0E0],"split_indices":[0],"split_type":[0],"sum_hessian":[1.27E2],"tree_param":{"num_deleted":"0","num_feature":"6","num_nodes":"1","size_leaf_vector":"0"}},{"base_weights":[-0E0],"categories":[],"categories_nodes":[],"categories_segments":[],"categories_sizes":[],"default_left":[0],"id":81,"left_children":[-1],"loss_changes":[0E0],"parents":[2147483647],"right_children":[-1],"split_conditions":[-0E0],"split_indices":[0],"split_type":[0],"sum_hessian":[1.27E2],"tree_param":{"num_deleted":"0","num_feature":"6","num_nodes":"1","size_leaf_vector":"0"}},{"base_weights":[-0E0],"categories":[],"categories_nodes":[],"categories_segments":[],"categories_sizes":[],"default_left":[0],"id":82,"left_children":[-1],"loss_changes":[0E0],"parents":[2147483647],"right_children":[-1],"split_conditions":[-0E0],"split_indices":[0],"split_type":[0],"sum_hessian":[1.27E2],"tree_param":{"num_deleted":"0","num_feature":"6","num_nodes":"1","size_leaf_vector":"0"}},{"base_weights":[-0E0],"categories":[],"categories_nodes":[],"categories_segments":[],"categories_sizes":[],"default_left":[0],"id":83,"left_children":[-1],"loss_changes":[0E0],"parents":[2147483647],"right_children":[-1],"split_conditions":[-0E0],"split_indices":[0],"split_type":[0],"sum_hessian":[1.27E2],"tree_param":{"num_deleted":"0","num_feature":"6","num_nodes":"1","size_leaf_vector":"0"}},{"base_weights":[-0E0],"categories":[],"categories_nodes":[],"categories_segments":[],"categories_sizes":[],"default_left":[0],"id":84,"left_children":[-1],"loss_changes":[0E0],"parents":[2147483647],"right_children":[-1],"split_conditions":[-0E0],"split_indices":[0],"split_type":[0],"sum_hessian":[1.27E2],"tree_param":{"num_deleted":"0","num_feature":"6","num_nodes":"1","size_leaf_vector":"0"}},{"base_weights":[-0E0],"categories":[],"categories_nodes":[],"categories_segments":[],"categories_sizes":[],"default_left":[0],"id":85,"left_children":[-1],"loss_changes":[0E0],"parents":[2147483647],"right_children":[-1],"split_conditions":[-0E0],"split_indices":[0],"split_type":[0],"sum_hessian":[1.27E2],"tree_param":{"num_deleted":"0","num_feature":"6","num_nodes":"1","size_leaf_vector":"0"}},{"base_weights":[-0E0],"categories":[],"categories_nodes":[],"categories_segments":[],"categories_sizes":[],"default_left":[0],"id":86,"left_children":[-1],"loss_changes":[0E0],"parents":[2147483647],"right_children":[-1],"split_conditions":[-0E0],"split_indices":[0],"split_type":[0],"sum_hessian":[1.27E2],"tree_param":{"num_deleted":"0","num_feature":"6","num_nodes":"1","size_leaf_vector":"0"}},{"base_weights":[-0E0],"categories":[],"categories_nodes":[],"categories_segments":[],"categories_sizes":[],"default_left":[0],"id":87,"left_children":[-1],"loss_changes":[0E0],"parents":[2147483647],"right_children":[-1],"split_conditions":[-0E0],"split_indices":[0],"split_type":[0],"sum_hessian":[1.27E2],"tree_param":{"num_deleted":"0","num_feature":"6","num_nodes":"1","size_leaf_vector":"0"}},{"base_weights":[-0E0],"categories":[],"categories_nodes":[],"categories_segments":[],"categories_sizes":[],"default_left":[0],"id":88,"left_children":[-1],"loss_changes":[0E0],"parents":[2147483647],"right_children":[-1],"split_conditions":[-0E0],"split_indices":[0],"split_type":[0],"sum_hessian":[1.27E2],"tree_param":{"num_deleted":"0","num_feature":"6","num_nodes":"1","size_leaf_vector":"0"}},{"base_weights":[-0E0],"categories":[],"categories_nodes":[],"categories_segments":[],"categories_sizes":[],"default_left":[0],"id":89,"left_children":[-1],"loss_changes":[0E0],"parents":[2147483647],"right_children":[-1],"split_conditions":[-0E0],"split_indices":[0],"split_type":[0],"sum_hessian":[1.27E2],"tree_param":{"num_deleted":"0","num_feature":"6","num_nodes":"1","size_leaf_vector":"0"}},{"base_weights":[-0E0],"categories":[],"categories_nodes":[],"categories_segments":[],"categories_sizes":[],"default_left":[0],"id":90,"left_children":[-1],"loss_changes":[0E0],"parents":[2147483647],"right_children":[-1],"split_conditions":[-0E0],"split_indices":[0],"split_type":[0],"sum_hessian":[1.27E2],"tree_param":{"num_deleted":"0","num_feature":"6","num_nodes":"1","size_leaf_vector":"0"}},{"base_weights":[-0E0],"categories":[],"categories_nodes":[],"categories_segments":[],"categories_sizes":[],"default_left":[0],"id":91,"left_children":[-1],"loss_changes":[0E0],"parents":[2147483647],"right_children":[-1],"split_conditions":[-0E0],"split_indices":[0],"split_type":[0],"sum_hessian":[1.27E2],"tree_param":{"num_deleted":"0","num_feature":"6","num_nodes":"1","size_leaf_vector":"0"}},{"base_weights":[-0E0],"categories":[],"categories_nodes":[],"categories_segments":[],"categories_sizes":[],"default_left":[0],"id":92,"left_children":[-1],"loss_changes":[0E0],"parents":[2147483647],"right_children":[-1],"split_conditions":[-0E0],"split_indices":[0],"split_type":[0],"sum_hessian":[1.27E2],"tree_param":{"num_deleted":"0","num_feature":"6","num_nodes":"1","size_leaf_vector":"0"}},{"base_weights":[-0E0],"categories":[],"categories_nodes":[],"categories_segments":[],"categories_sizes":[],"default_left":[0],"id":93,"left_children":[-1],"loss_changes":[0E0],"parents":[2147483647],"right_children":[-1],"split_conditions":[-0E0],"split_indices":[0],"split_type":[0],"sum_hessian":[1.27E2],"tree_param":{"num_deleted":"0","num_feature":"6","num_nodes":"1","size_leaf_vector":"0"}},{"base_weights":[-0E0],"categories":[],"categories_nodes":[],"categories_segments":[],"categories_sizes":[],"default_left":[0],"id":94,"left_children":[-1],"loss_changes":[0E0],"parents":[2147483647],"right_children":[-1],"split_conditions":[-0E0],"split_indices":[0],"split_type":[0],"sum_hessian":[1.27E2],"tree_param":{"num_deleted":"0","num_feature":"6","num_nodes":"1","size_leaf_vector":"0"}},{"base_weights":[-0E0],"categories":[],"categories_nodes":[],"categories_segments":[],"categories_sizes":[],"default_left":[0],"id":95,"left_children":[-1],"loss_changes":[0E0],"parents":[2147483647],"right_children":[-1],"split_conditions":[-0E0],"split_indices":[0],"split_type":[0],"sum_hessian":[1.27E2],"tree_param":{"num_deleted":"0","num_feature":"6","num_nodes":"1","size_leaf_vector":"0"}},{"base_weights":[-0E0],"categories":[],"categories_nodes":[],"categories_segments":[],"categories_sizes":[],"default_left":[0],"id":96,"left_children":[-1],"loss_changes":[0E0],"parents":[2147483647],"right_children":[-1],"split_conditions":[-0E0],"split_indices":[0],"split_type":[0],"sum_hessian":[1.27E2],"tree_param":{"num_deleted":"0","num_feature":"6","num_nodes":"1","size_leaf_vector":"0"}},{"base_weights":[-0E0],"categories":[],"categories_nodes":[],"categories_segments":[],"categories_sizes":[],"default_left":[0],"id":97,"left_children":[-1],"loss_changes":[0E0],"parents":[2147483647],"right_children":[-1],"split_conditions":[-0E0],"split_indices":[0],"split_type":[0],"sum_hessian":[1.27E2],"tree_param":{"num_deleted":"0","num_feature":"6","num_nodes":"1","size_leaf_vector":"0"}},{"base_weights":[-0E0],"categories":[],"categories_nodes":[],"categories_segments":[],"categories_sizes":[],"default_left":[0],"id":98,"left_children":[-1],"loss_changes":[0E0],"parents":[2147483647],"right_children":[-1],"split_conditions":[-0E0],"split_indices":[0],"split_type":[0],"sum_hessian":[1.27E2],"tree_param":{"num_deleted":"0","num_feature":"6","num_nodes":"1","size_leaf_vector":"0"}},{"base_weights":[-0E0],"categories":[],"categories_nodes":[],"categories_segments":[],"categories_sizes":[],"default_left":[0],"id":99,"left_children":[-1],"loss_changes":[0E0],"parents":[2147483647],"right_children":[-1],"split_conditions":[-0E0],"split_indices":[0],"split_type":[0],"sum_hessian":[1.27E2],"tree_param":{"num_deleted":"0","num_feature":"6","num_nodes":"1","size_leaf_vector":"0"}}]},"name":"gbtree"},"learner_model_param":{"base_score":"5E-1","boost_from_average":"1","num_class":"0","num_feature":"6","num_target":"1"},"objective":{"name":"reg:squarederror","reg_loss_param":{"scale_pos_weight":"1"}}},"version":[1,7,6]}